<?xml version="1.0"?>
<opencv_storage>
<cascade>
  <stageType>BOOST</stageType>
  <featureType>HAAR</featureType>
  <height>40</height>
  <width>80</width>
  <stageParams>
    <boostType>GAB</boostType>
    <minHitRate>9.9900001287460327e-01</minHitRate>
    <maxFalseAlarm>5.0000000000000000e-01</maxFalseAlarm>
    <weightTrimRate>9.4999999999999996e-01</weightTrimRate>
    <maxDepth>1</maxDepth>
    <maxWeakCount>100</maxWeakCount></stageParams>
  <featureParams>
    <maxCatCount>0</maxCatCount>
    <featSize>1</featSize>
    <mode>ALL</mode></featureParams>
  <stageNum>20</stageNum>
  <stages>
    <!-- stage 0 -->
    <_>
      <maxWeakCount>12</maxWeakCount>
      <stageThreshold>-1.3996962308883667e+00</stageThreshold>
      <weakClassifiers>
        <_>
          <internalNodes>
            0 -1 298 -6.4451447688043118e-03</internalNodes>
          <leafValues>
            7.1300446987152100e-01 -3.3333334326744080e-01</leafValues></_>
        <_>
          <internalNodes>
            0 -1 620 1.1719046160578728e-03</internalNodes>
          <leafValues>
            -2.6673018932342529e-01 6.1598628759384155e-01</leafValues></_>
        <_>
          <internalNodes>
            0 -1 82 -1.7386972904205322e-03</internalNodes>
          <leafValues>
            4.8918223381042480e-01 -3.3957979083061218e-01</leafValues></_>
        <_>
          <internalNodes>
            0 -1 540 -5.8790243929252028e-04</internalNodes>
          <leafValues>
            5.2955406904220581e-01 -2.9583835601806641e-01</leafValues></_>
        <_>
          <internalNodes>
            0 -1 70 -2.9182667276472785e-05</internalNodes>
          <leafValues>
            6.8497532606124878e-01 -2.0017509162425995e-01</leafValues></_>
        <_>
          <internalNodes>
            0 -1 331 6.4003961160778999e-03</internalNodes>
          <leafValues>
            -1.7519977688789368e-01 7.2523492574691772e-01</leafValues></_>
        <_>
          <internalNodes>
            0 -1 227 -2.2893863206263632e-04</internalNodes>
          <leafValues>
            5.0721758604049683e-01 -2.5051215291023254e-01</leafValues></_>
        <_>
          <internalNodes>
            0 -1 71 3.0708155827596784e-04</internalNodes>
          <leafValues>
            -1.9422180950641632e-01 6.1912256479263306e-01</leafValues></_>
        <_>
          <internalNodes>
            0 -1 491 -1.9849585369229317e-03</internalNodes>
          <leafValues>
            3.5893997550010681e-01 -3.5687732696533203e-01</leafValues></_>
        <_>
          <internalNodes>
            0 -1 585 4.8993551172316074e-04</internalNodes>
          <leafValues>
            -2.0611107349395752e-01 5.8978259563446045e-01</leafValues></_>
        <_>
          <internalNodes>
            0 -1 666 3.3456890378147364e-04</internalNodes>
          <leafValues>
            -2.2771604359149933e-01 5.4431992769241333e-01</leafValues></_>
        <_>
          <internalNodes>
            0 -1 29 -7.4493214488029480e-03</internalNodes>
          <leafValues>
            7.2763365507125854e-01 -1.7805694043636322e-01</leafValues></_></weakClassifiers></_>
    <!-- stage 1 -->
    <_>
      <maxWeakCount>23</maxWeakCount>
      <stageThreshold>-1.3401434421539307e+00</stageThreshold>
      <weakClassifiers>
        <_>
          <internalNodes>
            0 -1 233 -1.5783926472067833e-02</internalNodes>
          <leafValues>
            5.9371727705001831e-01 -2.5891473889350891e-01</leafValues></_>
        <_>
          <internalNodes>
            0 -1 128 -2.8932215645909309e-03</internalNodes>
          <leafValues>
            5.4046434164047241e-01 -2.3182320594787598e-01</leafValues></_>
        <_>
          <internalNodes>
            0 -1 243 -9.8553718999028206e-03</internalNodes>
          <leafValues>
            5.9061861038208008e-01 -1.6786436736583710e-01</leafValues></_>
        <_>
          <internalNodes>
            0 -1 504 -3.5716123878955841e-02</internalNodes>
          <leafValues>
            -8.0998992919921875e-01 1.1499883234500885e-01</leafValues></_>
        <_>
          <internalNodes>
            0 -1 529 -1.8988233059644699e-03</internalNodes>
          <leafValues>
            3.0922845005989075e-01 -3.0676698684692383e-01</leafValues></_>
        <_>
          <internalNodes>
            0 -1 15 -1.3500836212188005e-03</internalNodes>
          <leafValues>
            4.9733600020408630e-01 -1.9038541615009308e-01</leafValues></_>
        <_>
          <internalNodes>
            0 -1 396 -5.4856884526088834e-04</internalNodes>
          <leafValues>
            -8.2936632633209229e-01 1.1624151468276978e-01</leafValues></_>
        <_>
          <internalNodes>
            0 -1 154 -1.4388919807970524e-03</internalNodes>
          <leafValues>
            4.7530859708786011e-01 -2.2134353220462799e-01</leafValues></_>
        <_>
          <internalNodes>
            0 -1 457 -2.3507582955062389e-03</internalNodes>
          <leafValues>
            3.9501333236694336e-01 -2.3254458606243134e-01</leafValues></_>
        <_>
          <internalNodes>
            0 -1 344 -2.2956207394599915e-03</internalNodes>
          <leafValues>
            4.3053740262985229e-01 -2.1018686890602112e-01</leafValues></_>
        <_>
          <internalNodes>
            0 -1 117 1.0470604756847024e-03</internalNodes>
          <leafValues>
            -2.8526970744132996e-01 3.5290297865867615e-01</leafValues></_>
        <_>
          <internalNodes>
            0 -1 616 -1.2087597278878093e-03</internalNodes>
          <leafValues>
            4.6070384979248047e-01 -1.8197344243526459e-01</leafValues></_>
        <_>
          <internalNodes>
            0 -1 32 -1.0372982360422611e-03</internalNodes>
          <leafValues>
            3.4467497467994690e-01 -2.7206340432167053e-01</leafValues></_>
        <_>
          <internalNodes>
            0 -1 119 3.6671047564595938e-03</internalNodes>
          <leafValues>
            -1.7594270408153534e-01 5.6244945526123047e-01</leafValues></_>
        <_>
          <internalNodes>
            0 -1 324 4.6805747842881829e-05</internalNodes>
          <leafValues>
            1.8470983207225800e-01 -5.0912994146347046e-01</leafValues></_>
        <_>
          <internalNodes>
            0 -1 22 -8.0680410610511899e-04</internalNodes>
          <leafValues>
            3.7019556760787964e-01 -2.5714576244354248e-01</leafValues></_>
        <_>
          <internalNodes>
            0 -1 303 -9.3361100880429149e-04</internalNodes>
          <leafValues>
            -6.2261354923248291e-01 1.4408423006534576e-01</leafValues></_>
        <_>
          <internalNodes>
            0 -1 478 -2.6008570566773415e-03</internalNodes>
          <leafValues>
            3.3637410402297974e-01 -2.9681426286697388e-01</leafValues></_>
        <_>
          <internalNodes>
            0 -1 63 -2.5865720817819238e-04</internalNodes>
          <leafValues>
            4.3981432914733887e-01 -2.1509890258312225e-01</leafValues></_>
        <_>
          <internalNodes>
            0 -1 76 -2.9376316815614700e-03</internalNodes>
          <leafValues>
            3.8031160831451416e-01 -2.5413775444030762e-01</leafValues></_>
        <_>
          <internalNodes>
            0 -1 700 -1.6656020306982100e-04</internalNodes>
          <leafValues>
            4.6508327126502991e-01 -2.2206893563270569e-01</leafValues></_>
        <_>
          <internalNodes>
            0 -1 650 1.4112002099864185e-04</internalNodes>
          <leafValues>
            -2.1049712598323822e-01 4.5520845055580139e-01</leafValues></_>
        <_>
          <internalNodes>
            0 -1 511 -1.2922056484967470e-03</internalNodes>
          <leafValues>
            3.7072011828422546e-01 -2.5156685709953308e-01</leafValues></_></weakClassifiers></_>
    <!-- stage 2 -->
    <_>
      <maxWeakCount>16</maxWeakCount>
      <stageThreshold>-9.7971093654632568e-01</stageThreshold>
      <weakClassifiers>
        <_>
          <internalNodes>
            0 -1 37 -1.2195864692330360e-02</internalNodes>
          <leafValues>
            5.8411705493927002e-01 -2.4727837741374969e-01</leafValues></_>
        <_>
          <internalNodes>
            0 -1 528 6.3761249184608459e-03</internalNodes>
          <leafValues>
            -1.7999348044395447e-01 5.4779314994812012e-01</leafValues></_>
        <_>
          <internalNodes>
            0 -1 194 5.5866483598947525e-03</internalNodes>
          <leafValues>
            -1.9480992853641510e-01 5.2248144149780273e-01</leafValues></_>
        <_>
          <internalNodes>
            0 -1 90 -1.6596626956015825e-03</internalNodes>
          <leafValues>
            5.9852927923202515e-01 -1.7403520643711090e-01</leafValues></_>
        <_>
          <internalNodes>
            0 -1 553 3.9430744946002960e-03</internalNodes>
          <leafValues>
            -1.9946263730525970e-01 4.7592860460281372e-01</leafValues></_>
        <_>
          <internalNodes>
            0 -1 24 -3.2299481332302094e-02</internalNodes>
          <leafValues>
            6.6530042886734009e-01 -1.5936399996280670e-01</leafValues></_>
        <_>
          <internalNodes>
            0 -1 674 2.2677241940982640e-04</internalNodes>
          <leafValues>
            -1.9461905956268311e-01 5.1722687482833862e-01</leafValues></_>
        <_>
          <internalNodes>
            0 -1 416 1.7741115880198777e-04</internalNodes>
          <leafValues>
            1.6365334391593933e-01 -6.9053882360458374e-01</leafValues></_>
        <_>
          <internalNodes>
            0 -1 101 1.8837001407518983e-03</internalNodes>
          <leafValues>
            -2.1969474852085114e-01 4.7599527239799500e-01</leafValues></_>
        <_>
          <internalNodes>
            0 -1 390 -1.1509048053994775e-03</internalNodes>
          <leafValues>
            4.7769320011138916e-01 -2.0039771497249603e-01</leafValues></_>
        <_>
          <internalNodes>
            0 -1 69 1.1231645476073027e-04</internalNodes>
          <leafValues>
            -1.2781701982021332e-01 6.6321647167205811e-01</leafValues></_>
        <_>
          <internalNodes>
            0 -1 508 -1.0937434853985906e-03</internalNodes>
          <leafValues>
            4.3554973602294922e-01 -2.2197836637496948e-01</leafValues></_>
        <_>
          <internalNodes>
            0 -1 276 -7.2107359766960144e-02</internalNodes>
          <leafValues>
            -8.5868179798126221e-01 1.5504576265811920e-01</leafValues></_>
        <_>
          <internalNodes>
            0 -1 147 2.8070327825844288e-03</internalNodes>
          <leafValues>
            -2.3103025555610657e-01 5.2834278345108032e-01</leafValues></_>
        <_>
          <internalNodes>
            0 -1 16 -1.3665354344993830e-04</internalNodes>
          <leafValues>
            6.8829607963562012e-01 -1.2853853404521942e-01</leafValues></_>
        <_>
          <internalNodes>
            0 -1 599 -2.2999741486273706e-04</internalNodes>
          <leafValues>
            5.4985952377319336e-01 -1.5231002867221832e-01</leafValues></_></weakClassifiers></_>
    <!-- stage 3 -->
    <_>
      <maxWeakCount>25</maxWeakCount>
      <stageThreshold>-1.1322504281997681e+00</stageThreshold>
      <weakClassifiers>
        <_>
          <internalNodes>
            0 -1 41 -1.5680478513240814e-01</internalNodes>
          <leafValues>
            6.5616047382354736e-01 -6.4301550388336182e-02</leafValues></_>
        <_>
          <internalNodes>
            0 -1 397 1.7407603445462883e-04</internalNodes>
          <leafValues>
            1.7550350725650787e-01 -7.0452380180358887e-01</leafValues></_>
        <_>
          <internalNodes>
            0 -1 593 6.5386416390538216e-03</internalNodes>
          <leafValues>
            -1.7886225879192352e-01 5.4482454061508179e-01</leafValues></_>
        <_>
          <internalNodes>
            0 -1 399 -1.1335701856296510e-04</internalNodes>
          <leafValues>
            -7.3428416252136230e-01 9.7169972956180573e-02</leafValues></_>
        <_>
          <internalNodes>
            0 -1 314 7.0752878673374653e-03</internalNodes>
          <leafValues>
            -1.8447980284690857e-01 5.2063935995101929e-01</leafValues></_>
        <_>
          <internalNodes>
            0 -1 480 -2.0774416625499725e-03</internalNodes>
          <leafValues>
            3.3389189839363098e-01 -2.3027583956718445e-01</leafValues></_>
        <_>
          <internalNodes>
            0 -1 373 6.2754159444011748e-05</internalNodes>
          <leafValues>
            1.1496642976999283e-01 -6.7974376678466797e-01</leafValues></_>
        <_>
          <internalNodes>
            0 -1 160 2.2539892233908176e-03</internalNodes>
          <leafValues>
            -2.0715263485908508e-01 3.7805619835853577e-01</leafValues></_>
        <_>
          <internalNodes>
            0 -1 459 -6.2457186868414283e-04</internalNodes>
          <leafValues>
            2.9178655147552490e-01 -2.7782630920410156e-01</leafValues></_>
        <_>
          <internalNodes>
            0 -1 105 -5.8840671554207802e-03</internalNodes>
          <leafValues>
            4.6270978450775146e-01 -1.7561195790767670e-01</leafValues></_>
        <_>
          <internalNodes>
            0 -1 656 -1.2872982770204544e-02</internalNodes>
          <leafValues>
            5.5510586500167847e-01 -1.2368785589933395e-01</leafValues></_>
        <_>
          <internalNodes>
            0 -1 589 1.1904818937182426e-02</internalNodes>
          <leafValues>
            -1.5766507387161255e-01 4.4631266593933105e-01</leafValues></_>
        <_>
          <internalNodes>
            0 -1 369 -3.4918525489047170e-04</internalNodes>
          <leafValues>
            -7.8787106275558472e-01 1.1177881807088852e-01</leafValues></_>
        <_>
          <internalNodes>
            0 -1 207 -1.4961360720917583e-03</internalNodes>
          <leafValues>
            4.8592087626457214e-01 -1.7663694918155670e-01</leafValues></_>
        <_>
          <internalNodes>
            0 -1 244 1.5753805637359619e-03</internalNodes>
          <leafValues>
            -1.5562869608402252e-01 4.7207015752792358e-01</leafValues></_>
        <_>
          <internalNodes>
            0 -1 67 -1.6000311588868499e-03</internalNodes>
          <leafValues>
            4.3353173136711121e-01 -1.6406498849391937e-01</leafValues></_>
        <_>
          <internalNodes>
            0 -1 476 3.0099672585492954e-05</internalNodes>
          <leafValues>
            1.5340197086334229e-01 -5.0236445665359497e-01</leafValues></_>
        <_>
          <internalNodes>
            0 -1 635 1.8184618093073368e-03</internalNodes>
          <leafValues>
            -1.5203365683555603e-01 4.8990929126739502e-01</leafValues></_>
        <_>
          <internalNodes>
            0 -1 417 -3.8379360921680927e-04</internalNodes>
          <leafValues>
            2.7338311076164246e-01 -2.7879992127418518e-01</leafValues></_>
        <_>
          <internalNodes>
            0 -1 273 -1.8886552425101399e-05</internalNodes>
          <leafValues>
            -4.1388612985610962e-01 1.9606681168079376e-01</leafValues></_>
        <_>
          <internalNodes>
            0 -1 637 1.2887243647128344e-03</internalNodes>
          <leafValues>
            -1.3687059283256531e-01 5.9222203493118286e-01</leafValues></_>
        <_>
          <internalNodes>
            0 -1 409 3.0942892190068960e-03</internalNodes>
          <leafValues>
            -2.2925934195518494e-01 3.2717791199684143e-01</leafValues></_>
        <_>
          <internalNodes>
            0 -1 333 2.0897912327200174e-03</internalNodes>
          <leafValues>
            -1.6905592381954193e-01 4.2562001943588257e-01</leafValues></_>
        <_>
          <internalNodes>
            0 -1 537 3.2351348636439070e-05</internalNodes>
          <leafValues>
            1.8210045993328094e-01 -4.1808104515075684e-01</leafValues></_>
        <_>
          <internalNodes>
            0 -1 602 -4.6657193452119827e-03</internalNodes>
          <leafValues>
            4.7129932045936584e-01 -1.5264879167079926e-01</leafValues></_></weakClassifiers></_>
    <!-- stage 4 -->
    <_>
      <maxWeakCount>24</maxWeakCount>
      <stageThreshold>-9.7843849658966064e-01</stageThreshold>
      <weakClassifiers>
        <_>
          <internalNodes>
            0 -1 55 -1.8814504146575928e-01</internalNodes>
          <leafValues>
            6.0232222080230713e-01 -1.6465421766042709e-02</leafValues></_>
        <_>
          <internalNodes>
            0 -1 232 -1.0428179055452347e-02</internalNodes>
          <leafValues>
            -6.1205106973648071e-01 2.0000666379928589e-01</leafValues></_>
        <_>
          <internalNodes>
            0 -1 121 -2.8455723077058792e-03</internalNodes>
          <leafValues>
            4.6198952198028564e-01 -1.7113879323005676e-01</leafValues></_>
        <_>
          <internalNodes>
            0 -1 86 1.1199019354535267e-04</internalNodes>
          <leafValues>
            -1.3994309306144714e-01 5.1407182216644287e-01</leafValues></_>
        <_>
          <internalNodes>
            0 -1 361 -6.6959634423255920e-03</internalNodes>
          <leafValues>
            4.8812597990036011e-01 -1.6939221322536469e-01</leafValues></_>
        <_>
          <internalNodes>
            0 -1 359 -5.6311241351068020e-03</internalNodes>
          <leafValues>
            4.6678906679153442e-01 -1.3358832895755768e-01</leafValues></_>
        <_>
          <internalNodes>
            0 -1 202 2.2160209482535720e-04</internalNodes>
          <leafValues>
            -1.5549023449420929e-01 5.1432961225509644e-01</leafValues></_>
        <_>
          <internalNodes>
            0 -1 340 -2.5264051510021091e-04</internalNodes>
          <leafValues>
            -6.5675216913223267e-01 1.2858112156391144e-01</leafValues></_>
        <_>
          <internalNodes>
            0 -1 189 2.3644657630939037e-04</internalNodes>
          <leafValues>
            -1.2813825905323029e-01 7.3703634738922119e-01</leafValues></_>
        <_>
          <internalNodes>
            0 -1 565 3.3741160295903683e-03</internalNodes>
          <leafValues>
            -1.7819093167781830e-01 3.6883029341697693e-01</leafValues></_>
        <_>
          <internalNodes>
            0 -1 586 1.2459991557989269e-04</internalNodes>
          <leafValues>
            -1.5081055462360382e-01 5.8280980587005615e-01</leafValues></_>
        <_>
          <internalNodes>
            0 -1 695 -4.3137936154380441e-04</internalNodes>
          <leafValues>
            4.8391160368919373e-01 -1.2247795611619949e-01</leafValues></_>
        <_>
          <internalNodes>
            0 -1 258 1.2125303968787193e-02</internalNodes>
          <leafValues>
            9.2724703252315521e-02 -7.7033179998397827e-01</leafValues></_>
        <_>
          <internalNodes>
            0 -1 246 -1.2756042182445526e-02</internalNodes>
          <leafValues>
            -6.9734823703765869e-01 1.0586795955896378e-01</leafValues></_>
        <_>
          <internalNodes>
            0 -1 8 -2.8606425621546805e-04</internalNodes>
          <leafValues>
            4.5218214392662048e-01 -1.7300967872142792e-01</leafValues></_>
        <_>
          <internalNodes>
            0 -1 122 -1.0459923651069403e-03</internalNodes>
          <leafValues>
            2.6013568043708801e-01 -2.6501068472862244e-01</leafValues></_>
        <_>
          <internalNodes>
            0 -1 177 8.7968021631240845e-02</internalNodes>
          <leafValues>
            6.1371024698019028e-02 -8.7851959466934204e-01</leafValues></_>
        <_>
          <internalNodes>
            0 -1 264 -5.7764211669564247e-03</internalNodes>
          <leafValues>
            -5.9136790037155151e-01 1.0984972119331360e-01</leafValues></_>
        <_>
          <internalNodes>
            0 -1 211 -4.0706298314034939e-03</internalNodes>
          <leafValues>
            2.2417917847633362e-01 -3.3338817954063416e-01</leafValues></_>
        <_>
          <internalNodes>
            0 -1 5 -3.9601579192094505e-04</internalNodes>
          <leafValues>
            4.5443573594093323e-01 -1.6108676791191101e-01</leafValues></_>
        <_>
          <internalNodes>
            0 -1 541 -3.7156702019274235e-03</internalNodes>
          <leafValues>
            4.0116256475448608e-01 -1.4679166674613953e-01</leafValues></_>
        <_>
          <internalNodes>
            0 -1 597 -4.2682671919465065e-03</internalNodes>
          <leafValues>
            5.2335953712463379e-01 -1.3613826036453247e-01</leafValues></_>
        <_>
          <internalNodes>
            0 -1 443 -3.2951991306617856e-04</internalNodes>
          <leafValues>
            -5.2950829267501831e-01 1.3162636756896973e-01</leafValues></_>
        <_>
          <internalNodes>
            0 -1 19 7.5052244937978685e-05</internalNodes>
          <leafValues>
            -1.5592236816883087e-01 4.9558052420616150e-01</leafValues></_></weakClassifiers></_>
    <!-- stage 5 -->
    <_>
      <maxWeakCount>27</maxWeakCount>
      <stageThreshold>-1.0706037282943726e+00</stageThreshold>
      <weakClassifiers>
        <_>
          <internalNodes>
            0 -1 421 -2.4212936114054173e-04</internalNodes>
          <leafValues>
            -5.6198346614837646e-01 3.9469808340072632e-01</leafValues></_>
        <_>
          <internalNodes>
            0 -1 423 9.1322523076087236e-05</internalNodes>
          <leafValues>
            2.0100353658199310e-01 -5.9406197071075439e-01</leafValues></_>
        <_>
          <internalNodes>
            0 -1 4 -2.5242507457733154e-01</internalNodes>
          <leafValues>
            5.6889760494232178e-01 -1.9024455547332764e-01</leafValues></_>
        <_>
          <internalNodes>
            0 -1 242 -6.9885249249637127e-03</internalNodes>
          <leafValues>
            4.4129130244255066e-01 -2.2511138021945953e-01</leafValues></_>
        <_>
          <internalNodes>
            0 -1 317 2.8072761371731758e-02</internalNodes>
          <leafValues>
            -1.6565299034118652e-01 6.7420303821563721e-01</leafValues></_>
        <_>
          <internalNodes>
            0 -1 285 -2.4432060308754444e-04</internalNodes>
          <leafValues>
            -6.5200394392013550e-01 1.6626904904842377e-01</leafValues></_>
        <_>
          <internalNodes>
            0 -1 285 1.4483870472759008e-04</internalNodes>
          <leafValues>
            1.1886968463659286e-01 -5.4418241977691650e-01</leafValues></_>
        <_>
          <internalNodes>
            0 -1 131 2.5296048261225224e-03</internalNodes>
          <leafValues>
            -1.8676410615444183e-01 3.6514544486999512e-01</leafValues></_>
        <_>
          <internalNodes>
            0 -1 102 -3.6032246425747871e-03</internalNodes>
          <leafValues>
            3.6309921741485596e-01 -2.0473021268844604e-01</leafValues></_>
        <_>
          <internalNodes>
            0 -1 522 1.1979921720921993e-02</internalNodes>
          <leafValues>
            1.3229888677597046e-01 -5.5605977773666382e-01</leafValues></_>
        <_>
          <internalNodes>
            0 -1 320 5.8233400341123343e-04</internalNodes>
          <leafValues>
            1.0505441576242447e-01 -5.9543645381927490e-01</leafValues></_>
        <_>
          <internalNodes>
            0 -1 495 1.6050741542130709e-03</internalNodes>
          <leafValues>
            -1.7172881960868835e-01 3.9779070019721985e-01</leafValues></_>
        <_>
          <internalNodes>
            0 -1 152 -4.9613811075687408e-02</internalNodes>
          <leafValues>
            5.9729701280593872e-01 -1.1370146274566650e-01</leafValues></_>
        <_>
          <internalNodes>
            0 -1 284 -5.7452169130556285e-05</internalNodes>
          <leafValues>
            -5.3434717655181885e-01 1.5422466397285461e-01</leafValues></_>
        <_>
          <internalNodes>
            0 -1 39 6.5765711478888988e-03</internalNodes>
          <leafValues>
            -1.4472690224647522e-01 5.1746481657028198e-01</leafValues></_>
        <_>
          <internalNodes>
            0 -1 638 2.0950332691427320e-04</internalNodes>
          <leafValues>
            -1.7647182941436768e-01 3.4437716007232666e-01</leafValues></_>
        <_>
          <internalNodes>
            0 -1 591 1.7792873084545135e-02</internalNodes>
          <leafValues>
            -1.2218815088272095e-01 5.5175024271011353e-01</leafValues></_>
        <_>
          <internalNodes>
            0 -1 130 7.3187672533094883e-03</internalNodes>
          <leafValues>
            -1.0913538932800293e-01 5.4688835144042969e-01</leafValues></_>
        <_>
          <internalNodes>
            0 -1 383 4.5134751417208463e-05</internalNodes>
          <leafValues>
            1.7506812512874603e-01 -3.8117703795433044e-01</leafValues></_>
        <_>
          <internalNodes>
            0 -1 689 -2.7674962766468525e-03</internalNodes>
          <leafValues>
            5.9066492319107056e-01 -1.1408955603837967e-01</leafValues></_>
        <_>
          <internalNodes>
            0 -1 461 3.0054769013077021e-04</internalNodes>
          <leafValues>
            1.1474425345659256e-01 -6.8899118900299072e-01</leafValues></_>
        <_>
          <internalNodes>
            0 -1 241 -1.0823721997439861e-02</internalNodes>
          <leafValues>
            3.6103916168212891e-01 -2.0789015293121338e-01</leafValues></_>
        <_>
          <internalNodes>
            0 -1 212 -4.5657213777303696e-02</internalNodes>
          <leafValues>
            8.1614971160888672e-01 -7.1627609431743622e-02</leafValues></_>
        <_>
          <internalNodes>
            0 -1 279 3.7866897881031036e-02</internalNodes>
          <leafValues>
            1.5241669118404388e-01 -4.9104699492454529e-01</leafValues></_>
        <_>
          <internalNodes>
            0 -1 234 -1.2168958783149719e-03</internalNodes>
          <leafValues>
            2.6450115442276001e-01 -2.5911030173301697e-01</leafValues></_>
        <_>
          <internalNodes>
            0 -1 440 2.2902397904545069e-04</internalNodes>
          <leafValues>
            1.2236245721578598e-01 -6.3657313585281372e-01</leafValues></_>
        <_>
          <internalNodes>
            0 -1 66 -5.7184130128007382e-05</internalNodes>
          <leafValues>
            3.5148575901985168e-01 -2.0420688390731812e-01</leafValues></_></weakClassifiers></_>
    <!-- stage 6 -->
    <_>
      <maxWeakCount>30</maxWeakCount>
      <stageThreshold>-1.0704510211944580e+00</stageThreshold>
      <weakClassifiers>
        <_>
          <internalNodes>
            0 -1 59 -4.4379336759448051e-03</internalNodes>
          <leafValues>
            5.0935095548629761e-01 -9.1172210872173309e-02</leafValues></_>
        <_>
          <internalNodes>
            0 -1 120 1.5434825327247381e-03</internalNodes>
          <leafValues>
            -1.3728599250316620e-01 4.4437575340270996e-01</leafValues></_>
        <_>
          <internalNodes>
            0 -1 493 -7.7871739631518722e-04</internalNodes>
          <leafValues>
            3.5550725460052490e-01 -1.7712721228599548e-01</leafValues></_>
        <_>
          <internalNodes>
            0 -1 644 7.0502597372978926e-04</internalNodes>
          <leafValues>
            -1.5698078274726868e-01 4.3863150477409363e-01</leafValues></_>
        <_>
          <internalNodes>
            0 -1 570 -4.6913330443203449e-03</internalNodes>
          <leafValues>
            3.5100889205932617e-01 -1.7105855047702789e-01</leafValues></_>
        <_>
          <internalNodes>
            0 -1 201 9.4522326253354549e-04</internalNodes>
          <leafValues>
            -9.5721416175365448e-02 6.2488216161727905e-01</leafValues></_>
        <_>
          <internalNodes>
            0 -1 89 6.5199472010135651e-02</internalNodes>
          <leafValues>
            1.1077830940485001e-01 -5.7861506938934326e-01</leafValues></_>
        <_>
          <internalNodes>
            0 -1 300 -2.5408703368157148e-04</internalNodes>
          <leafValues>
            -6.9890928268432617e-01 9.9950425326824188e-02</leafValues></_>
        <_>
          <internalNodes>
            0 -1 198 -3.9974667131900787e-02</internalNodes>
          <leafValues>
            -7.4557721614837646e-01 7.4339181184768677e-02</leafValues></_>
        <_>
          <internalNodes>
            0 -1 292 3.9280995726585388e-02</internalNodes>
          <leafValues>
            8.4857925772666931e-02 -6.3617503643035889e-01</leafValues></_>
        <_>
          <internalNodes>
            0 -1 544 -3.4291596966795623e-04</internalNodes>
          <leafValues>
            3.1771853566169739e-01 -1.8996724486351013e-01</leafValues></_>
        <_>
          <internalNodes>
            0 -1 125 9.8003773018717766e-05</internalNodes>
          <leafValues>
            -1.3724549114704132e-01 4.2192205786705017e-01</leafValues></_>
        <_>
          <internalNodes>
            0 -1 619 -7.8792320564389229e-03</internalNodes>
          <leafValues>
            8.7824821472167969e-01 -4.2762663215398788e-02</leafValues></_>
        <_>
          <internalNodes>
            0 -1 319 -6.2195329519454390e-05</internalNodes>
          <leafValues>
            -4.3093630671501160e-01 1.3560621440410614e-01</leafValues></_>
        <_>
          <internalNodes>
            0 -1 684 8.7559269741177559e-04</internalNodes>
          <leafValues>
            -1.6108293831348419e-01 4.1360878944396973e-01</leafValues></_>
        <_>
          <internalNodes>
            0 -1 441 2.5161072699120268e-05</internalNodes>
          <leafValues>
            1.9516938924789429e-01 -3.3429047465324402e-01</leafValues></_>
        <_>
          <internalNodes>
            0 -1 661 7.2382972575724125e-05</internalNodes>
          <leafValues>
            -1.9178986549377441e-01 3.0744990706443787e-01</leafValues></_>
        <_>
          <internalNodes>
            0 -1 93 5.5426044855266809e-04</internalNodes>
          <leafValues>
            -9.2946872115135193e-02 5.5815964937210083e-01</leafValues></_>
        <_>
          <internalNodes>
            0 -1 667 5.8779045939445496e-03</internalNodes>
          <leafValues>
            -1.0753625631332397e-01 5.0909215211868286e-01</leafValues></_>
        <_>
          <internalNodes>
            0 -1 21 -1.0422235936857760e-04</internalNodes>
          <leafValues>
            3.9973524212837219e-01 -1.3490866124629974e-01</leafValues></_>
        <_>
          <internalNodes>
            0 -1 306 1.6482605133205652e-04</internalNodes>
          <leafValues>
            1.3196021318435669e-01 -4.8448514938354492e-01</leafValues></_>
        <_>
          <internalNodes>
            0 -1 208 -3.8805003277957439e-03</internalNodes>
          <leafValues>
            3.4855151176452637e-01 -1.9547311961650848e-01</leafValues></_>
        <_>
          <internalNodes>
            0 -1 648 -1.6432059928774834e-03</internalNodes>
          <leafValues>
            4.7840678691864014e-01 -1.1565339565277100e-01</leafValues></_>
        <_>
          <internalNodes>
            0 -1 686 -4.6817513066343963e-04</internalNodes>
          <leafValues>
            3.4153857827186584e-01 -1.7329102754592896e-01</leafValues></_>
        <_>
          <internalNodes>
            0 -1 299 2.1277317136991769e-04</internalNodes>
          <leafValues>
            8.4419257938861847e-02 -7.0588511228561401e-01</leafValues></_>
        <_>
          <internalNodes>
            0 -1 291 8.9120324701070786e-03</internalNodes>
          <leafValues>
            -1.1298386752605438e-01 5.4735988378524780e-01</leafValues></_>
        <_>
          <internalNodes>
            0 -1 31 7.3749721050262451e-02</internalNodes>
          <leafValues>
            1.2678581476211548e-01 -4.8069125413894653e-01</leafValues></_>
        <_>
          <internalNodes>
            0 -1 710 -4.7839895705692470e-04</internalNodes>
          <leafValues>
            4.4156861305236816e-01 -1.3113085925579071e-01</leafValues></_>
        <_>
          <internalNodes>
            0 -1 439 -1.2705514382105321e-04</internalNodes>
          <leafValues>
            4.2711603641510010e-01 -1.2241262197494507e-01</leafValues></_>
        <_>
          <internalNodes>
            0 -1 199 1.7099016986321658e-04</internalNodes>
          <leafValues>
            1.5769323706626892e-01 -3.6033552885055542e-01</leafValues></_></weakClassifiers></_>
    <!-- stage 7 -->
    <_>
      <maxWeakCount>37</maxWeakCount>
      <stageThreshold>-1.0432631969451904e+00</stageThreshold>
      <weakClassifiers>
        <_>
          <internalNodes>
            0 -1 74 -8.3205759525299072e-02</internalNodes>
          <leafValues>
            5.7202798128128052e-01 -1.0169491171836853e-02</leafValues></_>
        <_>
          <internalNodes>
            0 -1 339 -4.6423356980085373e-04</internalNodes>
          <leafValues>
            -7.4145793914794922e-01 1.1137333512306213e-01</leafValues></_>
        <_>
          <internalNodes>
            0 -1 106 -6.4102038741111755e-03</internalNodes>
          <leafValues>
            3.5436344146728516e-01 -1.9447426497936249e-01</leafValues></_>
        <_>
          <internalNodes>
            0 -1 445 -9.3851867131888866e-04</internalNodes>
          <leafValues>
            2.1880622208118439e-01 -2.8147163987159729e-01</leafValues></_>
        <_>
          <internalNodes>
            0 -1 371 -4.0831172373145819e-04</internalNodes>
          <leafValues>
            -6.2285059690475464e-01 9.5152802765369415e-02</leafValues></_>
        <_>
          <internalNodes>
            0 -1 389 2.2893291898071766e-03</internalNodes>
          <leafValues>
            -2.4323911964893341e-01 2.3121191561222076e-01</leafValues></_>
        <_>
          <internalNodes>
            0 -1 442 -1.0207960440311581e-04</internalNodes>
          <leafValues>
            -4.6208277344703674e-01 1.5273904800415039e-01</leafValues></_>
        <_>
          <internalNodes>
            0 -1 162 -1.8487371504306793e-02</internalNodes>
          <leafValues>
            3.7583070993423462e-01 -1.7371137440204620e-01</leafValues></_>
        <_>
          <internalNodes>
            0 -1 157 8.9152045547962189e-02</internalNodes>
          <leafValues>
            9.5911271870136261e-02 -6.1803680658340454e-01</leafValues></_>
        <_>
          <internalNodes>
            0 -1 270 -1.3194029452279210e-04</internalNodes>
          <leafValues>
            -7.1429938077926636e-01 6.8164967000484467e-02</leafValues></_>
        <_>
          <internalNodes>
            0 -1 437 -1.3360359007492661e-03</internalNodes>
          <leafValues>
            3.4314218163490295e-01 -1.6260646283626556e-01</leafValues></_>
        <_>
          <internalNodes>
            0 -1 196 2.6436073239892721e-03</internalNodes>
          <leafValues>
            -2.4196469783782959e-01 2.1812412142753601e-01</leafValues></_>
        <_>
          <internalNodes>
            0 -1 111 -6.2955189496278763e-03</internalNodes>
          <leafValues>
            3.9962586760520935e-01 -1.2091922014951706e-01</leafValues></_>
        <_>
          <internalNodes>
            0 -1 490 5.3615967044606805e-04</internalNodes>
          <leafValues>
            -1.8723717331886292e-01 3.0618396401405334e-01</leafValues></_>
        <_>
          <internalNodes>
            0 -1 564 -3.3822502009570599e-03</internalNodes>
          <leafValues>
            3.1855529546737671e-01 -1.6939817368984222e-01</leafValues></_>
        <_>
          <internalNodes>
            0 -1 248 -7.1448937524110079e-04</internalNodes>
          <leafValues>
            2.5159505009651184e-01 -2.3987796902656555e-01</leafValues></_>
        <_>
          <internalNodes>
            0 -1 260 -1.5066098421812057e-04</internalNodes>
          <leafValues>
            -5.2614748477935791e-01 1.0517179220914841e-01</leafValues></_>
        <_>
          <internalNodes>
            0 -1 653 3.8917222991585732e-04</internalNodes>
          <leafValues>
            -1.6069763898849487e-01 3.5980123281478882e-01</leafValues></_>
        <_>
          <internalNodes>
            0 -1 150 -3.8545662537217140e-03</internalNodes>
          <leafValues>
            5.1641124486923218e-01 -9.2603765428066254e-02</leafValues></_>
        <_>
          <internalNodes>
            0 -1 225 -5.5071040987968445e-03</internalNodes>
          <leafValues>
            3.8441431522369385e-01 -1.3209803402423859e-01</leafValues></_>
        <_>
          <internalNodes>
            0 -1 531 -1.2328449520282447e-04</internalNodes>
          <leafValues>
            -4.8408889770507812e-01 1.1785402894020081e-01</leafValues></_>
        <_>
          <internalNodes>
            0 -1 151 1.8853360961657017e-04</internalNodes>
          <leafValues>
            -2.0405213534832001e-01 2.6772293448448181e-01</leafValues></_>
        <_>
          <internalNodes>
            0 -1 584 -2.0516828953986987e-05</internalNodes>
          <leafValues>
            -2.8798061609268188e-01 1.8627737462520599e-01</leafValues></_>
        <_>
          <internalNodes>
            0 -1 647 -5.3288443014025688e-03</internalNodes>
          <leafValues>
            4.9547600746154785e-01 -1.1320979893207550e-01</leafValues></_>
        <_>
          <internalNodes>
            0 -1 267 1.0176443029195070e-03</internalNodes>
          <leafValues>
            8.1337481737136841e-02 -7.2011673450469971e-01</leafValues></_>
        <_>
          <internalNodes>
            0 -1 521 -1.4729712158441544e-02</internalNodes>
          <leafValues>
            -6.1121231317520142e-01 7.5617611408233643e-02</leafValues></_>
        <_>
          <internalNodes>
            0 -1 447 1.1533049400895834e-03</internalNodes>
          <leafValues>
            -7.9356066882610321e-02 7.4809288978576660e-01</leafValues></_>
        <_>
          <internalNodes>
            0 -1 156 1.4364568516612053e-02</internalNodes>
          <leafValues>
            -1.0335411131381989e-01 4.6316254138946533e-01</leafValues></_>
        <_>
          <internalNodes>
            0 -1 268 4.9889768706634641e-04</internalNodes>
          <leafValues>
            -1.2398340553045273e-01 4.1175711154937744e-01</leafValues></_>
        <_>
          <internalNodes>
            0 -1 422 -2.9299109883140773e-05</internalNodes>
          <leafValues>
            -3.1947273015975952e-01 1.8065421283245087e-01</leafValues></_>
        <_>
          <internalNodes>
            0 -1 33 -7.6961386948823929e-03</internalNodes>
          <leafValues>
            7.0565694570541382e-01 -7.5376331806182861e-02</leafValues></_>
        <_>
          <internalNodes>
            0 -1 669 2.7510448126122355e-04</internalNodes>
          <leafValues>
            -1.6909554600715637e-01 3.1320154666900635e-01</leafValues></_>
        <_>
          <internalNodes>
            0 -1 379 2.9916487983427942e-04</internalNodes>
          <leafValues>
            7.7264703810214996e-02 -7.4703294038772583e-01</leafValues></_>
        <_>
          <internalNodes>
            0 -1 631 -6.5080099739134312e-04</internalNodes>
          <leafValues>
            4.0426468849182129e-01 -1.4731051027774811e-01</leafValues></_>
        <_>
          <internalNodes>
            0 -1 535 1.1032857000827789e-03</internalNodes>
          <leafValues>
            -8.8322602212429047e-02 5.6312859058380127e-01</leafValues></_>
        <_>
          <internalNodes>
            0 -1 507 -1.1177700944244862e-03</internalNodes>
          <leafValues>
            3.8889703154563904e-01 -1.3231444358825684e-01</leafValues></_>
        <_>
          <internalNodes>
            0 -1 280 1.6356847481802106e-04</internalNodes>
          <leafValues>
            1.3979339599609375e-01 -4.3157947063446045e-01</leafValues></_></weakClassifiers></_>
    <!-- stage 8 -->
    <_>
      <maxWeakCount>39</maxWeakCount>
      <stageThreshold>-9.9776822328567505e-01</stageThreshold>
      <weakClassifiers>
        <_>
          <internalNodes>
            0 -1 375 6.3270428217947483e-03</internalNodes>
          <leafValues>
            -4.1055720299482346e-02 4.6623092889785767e-01</leafValues></_>
        <_>
          <internalNodes>
            0 -1 526 -9.1683864593505859e-04</internalNodes>
          <leafValues>
            2.6507163047790527e-01 -2.1413151919841766e-01</leafValues></_>
        <_>
          <internalNodes>
            0 -1 355 7.5539888348430395e-04</internalNodes>
          <leafValues>
            -6.4129009842872620e-02 7.1522736549377441e-01</leafValues></_>
        <_>
          <internalNodes>
            0 -1 323 -6.9190638896543533e-05</internalNodes>
          <leafValues>
            -4.9191910028457642e-01 8.5488587617874146e-02</leafValues></_>
        <_>
          <internalNodes>
            0 -1 545 -4.1855260496959090e-04</internalNodes>
          <leafValues>
            2.5069746375083923e-01 -1.9551579654216766e-01</leafValues></_>
        <_>
          <internalNodes>
            0 -1 633 -6.5373053075745702e-04</internalNodes>
          <leafValues>
            -3.8430538773536682e-01 1.3353903591632843e-01</leafValues></_>
        <_>
          <internalNodes>
            0 -1 342 8.2827463746070862e-02</internalNodes>
          <leafValues>
            7.6540641486644745e-02 -6.1925137042999268e-01</leafValues></_>
        <_>
          <internalNodes>
            0 -1 627 1.5439161797985435e-03</internalNodes>
          <leafValues>
            -1.2208797782659531e-01 4.2747938632965088e-01</leafValues></_>
        <_>
          <internalNodes>
            0 -1 391 5.5809984914958477e-03</internalNodes>
          <leafValues>
            -1.1386039108037949e-01 5.8397716283798218e-01</leafValues></_>
        <_>
          <internalNodes>
            0 -1 221 -6.9121168926358223e-03</internalNodes>
          <leafValues>
            -7.8667700290679932e-01 8.6766660213470459e-02</leafValues></_>
        <_>
          <internalNodes>
            0 -1 97 -2.6618875563144684e-03</internalNodes>
          <leafValues>
            6.4645606279373169e-01 -8.5191361606121063e-02</leafValues></_>
        <_>
          <internalNodes>
            0 -1 516 -4.0236007771454751e-04</internalNodes>
          <leafValues>
            3.1819504499435425e-01 -1.3515375554561615e-01</leafValues></_>
        <_>
          <internalNodes>
            0 -1 3 -1.6913085710257292e-04</internalNodes>
          <leafValues>
            5.4720580577850342e-01 -7.8278064727783203e-02</leafValues></_>
        <_>
          <internalNodes>
            0 -1 286 -5.8352947235107422e-04</internalNodes>
          <leafValues>
            -7.3783981800079346e-01 7.1142986416816711e-02</leafValues></_>
        <_>
          <internalNodes>
            0 -1 428 9.9383550696074963e-04</internalNodes>
          <leafValues>
            -1.1915127933025360e-01 4.0835338830947876e-01</leafValues></_>
        <_>
          <internalNodes>
            0 -1 17 -1.0934607125818729e-03</internalNodes>
          <leafValues>
            2.9365184903144836e-01 -1.6004437208175659e-01</leafValues></_>
        <_>
          <internalNodes>
            0 -1 655 4.3076621368527412e-03</internalNodes>
          <leafValues>
            -1.0165943205356598e-01 4.8203346133232117e-01</leafValues></_>
        <_>
          <internalNodes>
            0 -1 406 -3.9050609339028597e-03</internalNodes>
          <leafValues>
            -5.7298851013183594e-01 8.7842345237731934e-02</leafValues></_>
        <_>
          <internalNodes>
            0 -1 643 2.3005548864603043e-03</internalNodes>
          <leafValues>
            -1.4499616622924805e-01 3.2556915283203125e-01</leafValues></_>
        <_>
          <internalNodes>
            0 -1 449 -5.0525466213002801e-04</internalNodes>
          <leafValues>
            3.2897672057151794e-01 -1.3539943099021912e-01</leafValues></_>
        <_>
          <internalNodes>
            0 -1 377 -1.1059311509598047e-04</internalNodes>
          <leafValues>
            -5.9572762250900269e-01 8.0162793397903442e-02</leafValues></_>
        <_>
          <internalNodes>
            0 -1 57 -3.1940860208123922e-03</internalNodes>
          <leafValues>
            2.5215029716491699e-01 -1.9501800835132599e-01</leafValues></_>
        <_>
          <internalNodes>
            0 -1 694 -4.0487811929779127e-05</internalNodes>
          <leafValues>
            3.6774879693984985e-01 -1.3730145990848541e-01</leafValues></_>
        <_>
          <internalNodes>
            0 -1 481 -7.8016109764575958e-03</internalNodes>
          <leafValues>
            -6.8967813253402710e-01 7.8912548720836639e-02</leafValues></_>
        <_>
          <internalNodes>
            0 -1 109 4.1852233698591590e-04</internalNodes>
          <leafValues>
            -1.4790871739387512e-01 3.7809148430824280e-01</leafValues></_>
        <_>
          <internalNodes>
            0 -1 167 -9.6179413958452642e-05</internalNodes>
          <leafValues>
            -4.8759970068931580e-01 1.0622897744178772e-01</leafValues></_>
        <_>
          <internalNodes>
            0 -1 622 4.4459160417318344e-03</internalNodes>
          <leafValues>
            -8.5446313023567200e-02 6.5690743923187256e-01</leafValues></_>
        <_>
          <internalNodes>
            0 -1 352 -1.9168260041624308e-03</internalNodes>
          <leafValues>
            4.1797339916229248e-01 -1.1862599849700928e-01</leafValues></_>
        <_>
          <internalNodes>
            0 -1 580 1.2297192006371915e-04</internalNodes>
          <leafValues>
            1.7465108633041382e-01 -3.0924385786056519e-01</leafValues></_>
        <_>
          <internalNodes>
            0 -1 420 4.0038369479589164e-04</internalNodes>
          <leafValues>
            -2.0046223700046539e-01 2.6815360784530640e-01</leafValues></_>
        <_>
          <internalNodes>
            0 -1 519 2.3026858980301768e-04</internalNodes>
          <leafValues>
            1.0148271173238754e-01 -5.2500146627426147e-01</leafValues></_>
        <_>
          <internalNodes>
            0 -1 139 1.1697578011080623e-03</internalNodes>
          <leafValues>
            -1.5837915241718292e-01 3.0791926383972168e-01</leafValues></_>
        <_>
          <internalNodes>
            0 -1 209 -1.7973117530345917e-02</internalNodes>
          <leafValues>
            -6.4973121881484985e-01 7.8008167445659637e-02</leafValues></_>
        <_>
          <internalNodes>
            0 -1 707 4.1986888390965760e-04</internalNodes>
          <leafValues>
            -9.5890127122402191e-02 5.2498120069503784e-01</leafValues></_>
        <_>
          <internalNodes>
            0 -1 281 -1.1748657561838627e-03</internalNodes>
          <leafValues>
            -2.3575179278850555e-01 1.9025589525699615e-01</leafValues></_>
        <_>
          <internalNodes>
            0 -1 35 -1.6379971057176590e-02</internalNodes>
          <leafValues>
            4.7086983919143677e-01 -1.0514120012521744e-01</leafValues></_>
        <_>
          <internalNodes>
            0 -1 363 -6.3925288850441575e-04</internalNodes>
          <leafValues>
            3.0245649814605713e-01 -1.4957655966281891e-01</leafValues></_>
        <_>
          <internalNodes>
            0 -1 302 -1.5947122592478991e-03</internalNodes>
          <leafValues>
            -7.6360940933227539e-01 7.0794500410556793e-02</leafValues></_>
        <_>
          <internalNodes>
            0 -1 681 -1.1994360829703510e-04</internalNodes>
          <leafValues>
            3.0884289741516113e-01 -1.7992150783538818e-01</leafValues></_></weakClassifiers></_>
    <!-- stage 9 -->
    <_>
      <maxWeakCount>33</maxWeakCount>
      <stageThreshold>-9.0907490253448486e-01</stageThreshold>
      <weakClassifiers>
        <_>
          <internalNodes>
            0 -1 542 4.4151484034955502e-03</internalNodes>
          <leafValues>
            -6.4516127109527588e-02 4.1842609643936157e-01</leafValues></_>
        <_>
          <internalNodes>
            0 -1 592 5.1739579066634178e-03</internalNodes>
          <leafValues>
            -1.9594588875770569e-01 3.1750085949897766e-01</leafValues></_>
        <_>
          <internalNodes>
            0 -1 203 -7.0914747193455696e-03</internalNodes>
          <leafValues>
            4.2258238792419434e-01 -1.2529590725898743e-01</leafValues></_>
        <_>
          <internalNodes>
            0 -1 357 1.1768876720452681e-04</internalNodes>
          <leafValues>
            -1.2464939802885056e-01 5.1890778541564941e-01</leafValues></_>
        <_>
          <internalNodes>
            0 -1 351 -5.7757031172513962e-03</internalNodes>
          <leafValues>
            -6.8842965364456177e-01 1.0737230628728867e-01</leafValues></_>
        <_>
          <internalNodes>
            0 -1 489 -1.9768878701142967e-04</internalNodes>
          <leafValues>
            2.5369524955749512e-01 -2.1810255944728851e-01</leafValues></_>
        <_>
          <internalNodes>
            0 -1 702 1.6698491526767612e-04</internalNodes>
          <leafValues>
            -9.6596896648406982e-02 7.0285367965698242e-01</leafValues></_>
        <_>
          <internalNodes>
            0 -1 114 2.6969118043780327e-03</internalNodes>
          <leafValues>
            -1.3704772293567657e-01 3.5442817211151123e-01</leafValues></_>
        <_>
          <internalNodes>
            0 -1 560 1.3458821922540665e-03</internalNodes>
          <leafValues>
            -1.4811965823173523e-01 3.3095484972000122e-01</leafValues></_>
        <_>
          <internalNodes>
            0 -1 368 4.3037423165515065e-04</internalNodes>
          <leafValues>
            7.0106551051139832e-02 -7.4245601892471313e-01</leafValues></_>
        <_>
          <internalNodes>
            0 -1 25 -7.0372407208196819e-05</internalNodes>
          <leafValues>
            4.5882162451744080e-01 -1.1164520680904388e-01</leafValues></_>
        <_>
          <internalNodes>
            0 -1 438 4.0211239829659462e-03</internalNodes>
          <leafValues>
            -1.0337047278881073e-01 4.3694537878036499e-01</leafValues></_>
        <_>
          <internalNodes>
            0 -1 192 -1.4278108719736338e-03</internalNodes>
          <leafValues>
            5.5062067508697510e-01 -7.8272521495819092e-02</leafValues></_>
        <_>
          <internalNodes>
            0 -1 411 7.9750234726816416e-04</internalNodes>
          <leafValues>
            -1.9707666337490082e-01 2.6063957810401917e-01</leafValues></_>
        <_>
          <internalNodes>
            0 -1 365 -9.2862481251358986e-03</internalNodes>
          <leafValues>
            -4.9329918622970581e-01 1.0816662758588791e-01</leafValues></_>
        <_>
          <internalNodes>
            0 -1 683 -2.7422810671851039e-04</internalNodes>
          <leafValues>
            3.7976324558258057e-01 -1.3123989105224609e-01</leafValues></_>
        <_>
          <internalNodes>
            0 -1 532 -2.4211221898440272e-05</internalNodes>
          <leafValues>
            -3.4725540876388550e-01 1.4106220006942749e-01</leafValues></_>
        <_>
          <internalNodes>
            0 -1 680 2.3737008450552821e-04</internalNodes>
          <leafValues>
            -1.1685106158256531e-01 4.1342166066169739e-01</leafValues></_>
        <_>
          <internalNodes>
            0 -1 626 -1.0331962257623672e-03</internalNodes>
          <leafValues>
            3.3156928420066833e-01 -1.4620944857597351e-01</leafValues></_>
        <_>
          <internalNodes>
            0 -1 236 -4.0125727537088096e-04</internalNodes>
          <leafValues>
            -6.0461908578872681e-01 9.7310915589332581e-02</leafValues></_>
        <_>
          <internalNodes>
            0 -1 604 2.9844450764358044e-03</internalNodes>
          <leafValues>
            -1.7005601525306702e-01 3.1445676088333130e-01</leafValues></_>
        <_>
          <internalNodes>
            0 -1 693 -1.2074429541826248e-03</internalNodes>
          <leafValues>
            3.8145184516906738e-01 -1.1526713520288467e-01</leafValues></_>
        <_>
          <internalNodes>
            0 -1 625 1.6310170758515596e-04</internalNodes>
          <leafValues>
            1.3608033955097198e-01 -3.5641664266586304e-01</leafValues></_>
        <_>
          <internalNodes>
            0 -1 83 -3.5983505658805370e-03</internalNodes>
          <leafValues>
            8.0648726224899292e-01 -6.6799663007259369e-02</leafValues></_>
        <_>
          <internalNodes>
            0 -1 65 1.4694893616251647e-04</internalNodes>
          <leafValues>
            -1.2361573427915573e-01 3.5940444469451904e-01</leafValues></_>
        <_>
          <internalNodes>
            0 -1 413 -6.3803110970184207e-04</internalNodes>
          <leafValues>
            -7.7489387989044189e-01 7.0421919226646423e-02</leafValues></_>
        <_>
          <internalNodes>
            0 -1 34 -8.3583130617626011e-05</internalNodes>
          <leafValues>
            3.5885572433471680e-01 -1.4972494542598724e-01</leafValues></_>
        <_>
          <internalNodes>
            0 -1 575 1.1714009568095207e-02</internalNodes>
          <leafValues>
            1.0167936980724335e-01 -5.1838862895965576e-01</leafValues></_>
        <_>
          <internalNodes>
            0 -1 216 7.1826381608843803e-03</internalNodes>
          <leafValues>
            5.3196743130683899e-02 -8.4023177623748779e-01</leafValues></_>
        <_>
          <internalNodes>
            0 -1 514 -6.4689328428357840e-04</internalNodes>
          <leafValues>
            2.5278824567794800e-01 -1.9961877167224884e-01</leafValues></_>
        <_>
          <internalNodes>
            0 -1 228 -1.5055193216539919e-05</internalNodes>
          <leafValues>
            -2.5485458970069885e-01 1.8630905449390411e-01</leafValues></_>
        <_>
          <internalNodes>
            0 -1 699 2.9733829433098435e-04</internalNodes>
          <leafValues>
            -1.4204046130180359e-01 3.7433972954750061e-01</leafValues></_>
        <_>
          <internalNodes>
            0 -1 518 -3.6538948188535869e-04</internalNodes>
          <leafValues>
            7.4280226230621338e-01 -6.5797038376331329e-02</leafValues></_></weakClassifiers></_>
    <!-- stage 10 -->
    <_>
      <maxWeakCount>38</maxWeakCount>
      <stageThreshold>-9.0770596265792847e-01</stageThreshold>
      <weakClassifiers>
        <_>
          <internalNodes>
            0 -1 451 -1.0935722850263119e-02</internalNodes>
          <leafValues>
            4.1176471114158630e-01 -6.2271062284708023e-02</leafValues></_>
        <_>
          <internalNodes>
            0 -1 68 -6.1939074657857418e-03</internalNodes>
          <leafValues>
            2.2446911036968231e-01 -2.5921633839607239e-01</leafValues></_>
        <_>
          <internalNodes>
            0 -1 546 1.1761603673221543e-04</internalNodes>
          <leafValues>
            -7.9294532537460327e-02 5.7372367382049561e-01</leafValues></_>
        <_>
          <internalNodes>
            0 -1 14 2.1681742370128632e-01</internalNodes>
          <leafValues>
            -1.2032448500394821e-01 6.5425258874893188e-01</leafValues></_>
        <_>
          <internalNodes>
            0 -1 197 2.3905344307422638e-02</internalNodes>
          <leafValues>
            9.7870118916034698e-02 -5.7645004987716675e-01</leafValues></_>
        <_>
          <internalNodes>
            0 -1 30 -8.8268313556909561e-03</internalNodes>
          <leafValues>
            3.7148734927177429e-01 -1.2034719437360764e-01</leafValues></_>
        <_>
          <internalNodes>
            0 -1 367 -2.2372368257492781e-03</internalNodes>
          <leafValues>
            -6.7494362592697144e-01 7.3488041758537292e-02</leafValues></_>
        <_>
          <internalNodes>
            0 -1 226 -6.4722215756773949e-03</internalNodes>
          <leafValues>
            3.0953350663185120e-01 -1.3726513087749481e-01</leafValues></_>
        <_>
          <internalNodes>
            0 -1 401 4.5692453568335623e-05</internalNodes>
          <leafValues>
            1.1681324243545532e-01 -3.5296052694320679e-01</leafValues></_>
        <_>
          <internalNodes>
            0 -1 48 -1.3218613457866013e-04</internalNodes>
          <leafValues>
            4.1715008020401001e-01 -1.0548366606235504e-01</leafValues></_>
        <_>
          <internalNodes>
            0 -1 588 1.6175922006368637e-02</internalNodes>
          <leafValues>
            -1.3668504357337952e-01 3.1278511881828308e-01</leafValues></_>
        <_>
          <internalNodes>
            0 -1 7 -3.0372367473319173e-04</internalNodes>
          <leafValues>
            4.0333619713783264e-01 -1.1381855607032776e-01</leafValues></_>
        <_>
          <internalNodes>
            0 -1 467 2.0773215219378471e-03</internalNodes>
          <leafValues>
            -7.4812673032283783e-02 5.2962523698806763e-01</leafValues></_>
        <_>
          <internalNodes>
            0 -1 252 1.7437640577554703e-02</internalNodes>
          <leafValues>
            6.1375107616186142e-02 -8.0170524120330811e-01</leafValues></_>
        <_>
          <internalNodes>
            0 -1 662 7.9694043961353600e-05</internalNodes>
          <leafValues>
            -1.0580072551965714e-01 4.7382587194442749e-01</leafValues></_>
        <_>
          <internalNodes>
            0 -1 403 2.0191912426525960e-06</internalNodes>
          <leafValues>
            -2.1624644100666046e-01 2.1901343762874603e-01</leafValues></_>
        <_>
          <internalNodes>
            0 -1 465 -1.7444303375668824e-04</internalNodes>
          <leafValues>
            -4.8596212267875671e-01 9.2783182859420776e-02</leafValues></_>
        <_>
          <internalNodes>
            0 -1 220 -1.0839058086276054e-04</internalNodes>
          <leafValues>
            -3.1116160750389099e-01 1.3441355526447296e-01</leafValues></_>
        <_>
          <internalNodes>
            0 -1 231 1.6021510236896574e-04</internalNodes>
          <leafValues>
            -1.4426432549953461e-01 3.2596117258071899e-01</leafValues></_>
        <_>
          <internalNodes>
            0 -1 240 5.7449429295957088e-03</internalNodes>
          <leafValues>
            -1.1483104526996613e-01 3.6117121577262878e-01</leafValues></_>
        <_>
          <internalNodes>
            0 -1 600 -3.4694960049819201e-05</internalNodes>
          <leafValues>
            -2.8862148523330688e-01 1.5297350287437439e-01</leafValues></_>
        <_>
          <internalNodes>
            0 -1 38 -2.6053015608340502e-04</internalNodes>
          <leafValues>
            -3.1652313470840454e-01 1.3942824304103851e-01</leafValues></_>
        <_>
          <internalNodes>
            0 -1 664 -5.7909288443624973e-04</internalNodes>
          <leafValues>
            4.5583686232566833e-01 -9.9062941968441010e-02</leafValues></_>
        <_>
          <internalNodes>
            0 -1 50 -5.2213712478987873e-05</internalNodes>
          <leafValues>
            4.1471922397613525e-01 -1.1174908280372620e-01</leafValues></_>
        <_>
          <internalNodes>
            0 -1 381 4.3672416359186172e-04</internalNodes>
          <leafValues>
            -9.4400107860565186e-02 4.6038296818733215e-01</leafValues></_>
        <_>
          <internalNodes>
            0 -1 1 -3.6824366543442011e-03</internalNodes>
          <leafValues>
            2.4433560669422150e-01 -1.8676044046878815e-01</leafValues></_>
        <_>
          <internalNodes>
            0 -1 309 -9.2462039901874959e-05</internalNodes>
          <leafValues>
            -3.4775805473327637e-01 1.3594903051853180e-01</leafValues></_>
        <_>
          <internalNodes>
            0 -1 473 8.3238439401611686e-04</internalNodes>
          <leafValues>
            -1.3367100059986115e-01 3.4593874216079712e-01</leafValues></_>
        <_>
          <internalNodes>
            0 -1 44 5.4010073654353619e-04</internalNodes>
          <leafValues>
            -6.6452950239181519e-02 6.0247308015823364e-01</leafValues></_>
        <_>
          <internalNodes>
            0 -1 430 -2.1656313037965447e-05</internalNodes>
          <leafValues>
            -2.8786286711692810e-01 1.5858538448810577e-01</leafValues></_>
        <_>
          <internalNodes>
            0 -1 237 -1.9008943345397711e-03</internalNodes>
          <leafValues>
            4.5314696431159973e-01 -9.9494107067584991e-02</leafValues></_>
        <_>
          <internalNodes>
            0 -1 161 -1.1432199971750379e-04</internalNodes>
          <leafValues>
            2.1726885437965393e-01 -2.2116167843341827e-01</leafValues></_>
        <_>
          <internalNodes>
            0 -1 534 -5.2707102149724960e-03</internalNodes>
          <leafValues>
            -5.7670754194259644e-01 8.2602128386497498e-02</leafValues></_>
        <_>
          <internalNodes>
            0 -1 690 2.3528224846813828e-04</internalNodes>
          <leafValues>
            -1.2358739227056503e-01 3.6709329485893250e-01</leafValues></_>
        <_>
          <internalNodes>
            0 -1 325 -9.5274168415926397e-05</internalNodes>
          <leafValues>
            -5.4852831363677979e-01 9.2966556549072266e-02</leafValues></_>
        <_>
          <internalNodes>
            0 -1 634 -1.8728932365775108e-02</internalNodes>
          <leafValues>
            6.0780328512191772e-01 -8.3689205348491669e-02</leafValues></_>
        <_>
          <internalNodes>
            0 -1 205 -1.6390301752835512e-03</internalNodes>
          <leafValues>
            4.8878243565559387e-01 -8.2988120615482330e-02</leafValues></_>
        <_>
          <internalNodes>
            0 -1 301 5.3315379773266613e-05</internalNodes>
          <leafValues>
            9.8103381693363190e-02 -4.6959140896797180e-01</leafValues></_></weakClassifiers></_>
    <!-- stage 11 -->
    <_>
      <maxWeakCount>38</maxWeakCount>
      <stageThreshold>-9.0774279832839966e-01</stageThreshold>
      <weakClassifiers>
        <_>
          <internalNodes>
            0 -1 515 5.7059498503804207e-03</internalNodes>
          <leafValues>
            7.2744905948638916e-02 5.7117748260498047e-01</leafValues></_>
        <_>
          <internalNodes>
            0 -1 328 -3.3415073994547129e-03</internalNodes>
          <leafValues>
            3.1671783328056335e-01 -1.5237478911876678e-01</leafValues></_>
        <_>
          <internalNodes>
            0 -1 336 2.0569544285535812e-03</internalNodes>
          <leafValues>
            -1.8254148960113525e-01 2.6217466592788696e-01</leafValues></_>
        <_>
          <internalNodes>
            0 -1 188 2.9678260907530785e-03</internalNodes>
          <leafValues>
            -2.4133262038230896e-01 2.4660322070121765e-01</leafValues></_>
        <_>
          <internalNodes>
            0 -1 321 -2.3472195607610047e-04</internalNodes>
          <leafValues>
            -5.1810061931610107e-01 9.4809398055076599e-02</leafValues></_>
        <_>
          <internalNodes>
            0 -1 107 6.5057945903390646e-04</internalNodes>
          <leafValues>
            -1.1963608115911484e-01 3.6035978794097900e-01</leafValues></_>
        <_>
          <internalNodes>
            0 -1 350 -2.4909310741350055e-04</internalNodes>
          <leafValues>
            -5.0832837820053101e-01 8.0886453390121460e-02</leafValues></_>
        <_>
          <internalNodes>
            0 -1 170 -3.7013692781329155e-03</internalNodes>
          <leafValues>
            3.6747595667839050e-01 -1.2183803319931030e-01</leafValues></_>
        <_>
          <internalNodes>
            0 -1 60 -1.9206828437745571e-03</internalNodes>
          <leafValues>
            3.2124543190002441e-01 -1.5400752425193787e-01</leafValues></_>
        <_>
          <internalNodes>
            0 -1 657 5.7098321849480271e-04</internalNodes>
          <leafValues>
            -1.2520165741443634e-01 3.5883203148841858e-01</leafValues></_>
        <_>
          <internalNodes>
            0 -1 608 -5.0361105240881443e-04</internalNodes>
          <leafValues>
            -4.4273084402084351e-01 1.0702273249626160e-01</leafValues></_>
        <_>
          <internalNodes>
            0 -1 500 -1.4401851221919060e-03</internalNodes>
          <leafValues>
            -5.5128258466720581e-01 9.0551391243934631e-02</leafValues></_>
        <_>
          <internalNodes>
            0 -1 615 1.4973112847656012e-03</internalNodes>
          <leafValues>
            -1.4696298539638519e-01 3.3575871586799622e-01</leafValues></_>
        <_>
          <internalNodes>
            0 -1 606 1.1668880470097065e-02</internalNodes>
          <leafValues>
            -5.7987350970506668e-02 7.2107625007629395e-01</leafValues></_>
        <_>
          <internalNodes>
            0 -1 155 4.9008778296411037e-04</internalNodes>
          <leafValues>
            -6.7716799676418304e-02 5.8109426498413086e-01</leafValues></_>
        <_>
          <internalNodes>
            0 -1 145 1.4762034639716148e-02</internalNodes>
          <leafValues>
            -1.0343917459249496e-01 4.0405669808387756e-01</leafValues></_>
        <_>
          <internalNodes>
            0 -1 485 -1.5284232795238495e-03</internalNodes>
          <leafValues>
            2.5084957480430603e-01 -1.9558973610401154e-01</leafValues></_>
        <_>
          <internalNodes>
            0 -1 6 1.9169476581737399e-04</internalNodes>
          <leafValues>
            -1.3423261046409607e-01 3.3235970139503479e-01</leafValues></_>
        <_>
          <internalNodes>
            0 -1 249 -4.4740696466760710e-05</internalNodes>
          <leafValues>
            -3.3038115501403809e-01 1.3951860368251801e-01</leafValues></_>
        <_>
          <internalNodes>
            0 -1 275 -1.1082442943006754e-03</internalNodes>
          <leafValues>
            3.5054728388786316e-01 -1.3274858891963959e-01</leafValues></_>
        <_>
          <internalNodes>
            0 -1 492 1.9773803651332855e-03</internalNodes>
          <leafValues>
            -1.6711877286434174e-01 3.0308529734611511e-01</leafValues></_>
        <_>
          <internalNodes>
            0 -1 250 -4.4220892596058547e-04</internalNodes>
          <leafValues>
            5.3715693950653076e-01 -9.7715415060520172e-02</leafValues></_>
        <_>
          <internalNodes>
            0 -1 277 -1.4297258853912354e-01</internalNodes>
          <leafValues>
            -5.4130566120147705e-01 9.8729975521564484e-02</leafValues></_>
        <_>
          <internalNodes>
            0 -1 475 -2.5635992642492056e-04</internalNodes>
          <leafValues>
            -6.3101190328598022e-01 6.8111129105091095e-02</leafValues></_>
        <_>
          <internalNodes>
            0 -1 311 -9.8330453038215637e-03</internalNodes>
          <leafValues>
            5.9478974342346191e-01 -8.4323339164257050e-02</leafValues></_>
        <_>
          <internalNodes>
            0 -1 360 1.6849464736878872e-03</internalNodes>
          <leafValues>
            -1.2019225209951401e-01 3.7121057510375977e-01</leafValues></_>
        <_>
          <internalNodes>
            0 -1 165 -2.3753313143970445e-05</internalNodes>
          <leafValues>
            -2.6447376608848572e-01 1.8023367226123810e-01</leafValues></_>
        <_>
          <internalNodes>
            0 -1 265 -5.3315039258450270e-04</internalNodes>
          <leafValues>
            -3.9355158805847168e-01 1.0639048367738724e-01</leafValues></_>
        <_>
          <internalNodes>
            0 -1 444 -5.8956129942089319e-04</internalNodes>
          <leafValues>
            2.7839055657386780e-01 -1.5799805521965027e-01</leafValues></_>
        <_>
          <internalNodes>
            0 -1 272 -7.6757790520787239e-04</internalNodes>
          <leafValues>
            3.0607619881629944e-01 -1.7756758630275726e-01</leafValues></_>
        <_>
          <internalNodes>
            0 -1 184 -3.2664336264133453e-02</internalNodes>
          <leafValues>
            2.1361367404460907e-01 -2.3728992044925690e-01</leafValues></_>
        <_>
          <internalNodes>
            0 -1 99 4.2468081228435040e-03</internalNodes>
          <leafValues>
            -8.9537903666496277e-02 5.0617223978042603e-01</leafValues></_>
        <_>
          <internalNodes>
            0 -1 432 3.2509917218703777e-05</internalNodes>
          <leafValues>
            1.5085411071777344e-01 -3.2592317461967468e-01</leafValues></_>
        <_>
          <internalNodes>
            0 -1 701 -8.7821169290691614e-04</internalNodes>
          <leafValues>
            3.0311173200607300e-01 -1.5196436643600464e-01</leafValues></_>
        <_>
          <internalNodes>
            0 -1 402 3.0705068638781086e-05</internalNodes>
          <leafValues>
            1.2835486233234406e-01 -3.6459878087043762e-01</leafValues></_>
        <_>
          <internalNodes>
            0 -1 297 3.2123876735568047e-04</internalNodes>
          <leafValues>
            -1.4854559302330017e-01 3.2387375831604004e-01</leafValues></_>
        <_>
          <internalNodes>
            0 -1 126 -2.5121658109128475e-03</internalNodes>
          <leafValues>
            -5.5625927448272705e-01 8.9182846248149872e-02</leafValues></_>
        <_>
          <internalNodes>
            0 -1 254 2.9204511520219967e-05</internalNodes>
          <leafValues>
            1.3961803913116455e-01 -3.3520263433456421e-01</leafValues></_></weakClassifiers></_>
    <!-- stage 12 -->
    <_>
      <maxWeakCount>46</maxWeakCount>
      <stageThreshold>-9.5389389991760254e-01</stageThreshold>
      <weakClassifiers>
        <_>
          <internalNodes>
            0 -1 118 -4.2169978842139244e-03</internalNodes>
          <leafValues>
            5.0844854116439819e-01 7.2708114981651306e-02</leafValues></_>
        <_>
          <internalNodes>
            0 -1 523 1.0562095791101456e-02</internalNodes>
          <leafValues>
            -8.8518582284450531e-02 4.5895591378211975e-01</leafValues></_>
        <_>
          <internalNodes>
            0 -1 274 -8.2335469778627157e-04</internalNodes>
          <leafValues>
            5.4626101255416870e-01 -1.1545725166797638e-01</leafValues></_>
        <_>
          <internalNodes>
            0 -1 305 -8.0893689300864935e-05</internalNodes>
          <leafValues>
            -4.5232269167900085e-01 1.3758167624473572e-01</leafValues></_>
        <_>
          <internalNodes>
            0 -1 52 -1.3734060525894165e-01</internalNodes>
          <leafValues>
            4.4765943288803101e-01 -9.1852910816669464e-02</leafValues></_>
        <_>
          <internalNodes>
            0 -1 525 -7.4605694971978664e-03</internalNodes>
          <leafValues>
            -8.2946145534515381e-01 3.3164232969284058e-02</leafValues></_>
        <_>
          <internalNodes>
            0 -1 649 2.5617677601985633e-04</internalNodes>
          <leafValues>
            -1.0780821740627289e-01 4.0339121222496033e-01</leafValues></_>
        <_>
          <internalNodes>
            0 -1 596 -2.9431257862597704e-03</internalNodes>
          <leafValues>
            3.9333429932594299e-01 -1.0004267096519470e-01</leafValues></_>
        <_>
          <internalNodes>
            0 -1 576 -7.8804674558341503e-05</internalNodes>
          <leafValues>
            2.0538467168807983e-01 -2.3002296686172485e-01</leafValues></_>
        <_>
          <internalNodes>
            0 -1 524 -5.6363060139119625e-04</internalNodes>
          <leafValues>
            3.3849719166755676e-01 -1.2204796075820923e-01</leafValues></_>
        <_>
          <internalNodes>
            0 -1 327 -1.6118308849399909e-05</internalNodes>
          <leafValues>
            -3.2609173655509949e-01 1.3367372751235962e-01</leafValues></_>
        <_>
          <internalNodes>
            0 -1 134 -6.3998550176620483e-03</internalNodes>
          <leafValues>
            6.8415480852127075e-01 -6.7640982568264008e-02</leafValues></_>
        <_>
          <internalNodes>
            0 -1 659 -1.0319915600121021e-03</internalNodes>
          <leafValues>
            3.4443721175193787e-01 -1.1489669978618622e-01</leafValues></_>
        <_>
          <internalNodes>
            0 -1 477 6.8281637504696846e-04</internalNodes>
          <leafValues>
            -1.7013780772686005e-01 2.4551859498023987e-01</leafValues></_>
        <_>
          <internalNodes>
            0 -1 213 -1.8155697733163834e-02</internalNodes>
          <leafValues>
            -5.5044430494308472e-01 9.1668047010898590e-02</leafValues></_>
        <_>
          <internalNodes>
            0 -1 266 -1.3343830360099673e-03</internalNodes>
          <leafValues>
            2.2111603617668152e-01 -2.2202265262603760e-01</leafValues></_>
        <_>
          <internalNodes>
            0 -1 506 -4.5939115807414055e-04</internalNodes>
          <leafValues>
            3.3192408084869385e-01 -1.3923510909080505e-01</leafValues></_>
        <_>
          <internalNodes>
            0 -1 332 -1.4165863394737244e-02</internalNodes>
          <leafValues>
            -6.8167424201965332e-01 7.2646364569664001e-02</leafValues></_>
        <_>
          <internalNodes>
            0 -1 96 -1.3625225983560085e-03</internalNodes>
          <leafValues>
            4.5133510231971741e-01 -1.0296141356229782e-01</leafValues></_>
        <_>
          <internalNodes>
            0 -1 18 1.2243584205862135e-04</internalNodes>
          <leafValues>
            -1.1448182910680771e-01 3.8022345304489136e-01</leafValues></_>
        <_>
          <internalNodes>
            0 -1 574 1.4641080051660538e-03</internalNodes>
          <leafValues>
            6.4763903617858887e-02 -6.9348996877670288e-01</leafValues></_>
        <_>
          <internalNodes>
            0 -1 613 2.8187265343149193e-05</internalNodes>
          <leafValues>
            -1.6429109871387482e-01 2.5703343749046326e-01</leafValues></_>
        <_>
          <internalNodes>
            0 -1 454 6.6985422745347023e-04</internalNodes>
          <leafValues>
            -1.4119935035705566e-01 3.0629348754882812e-01</leafValues></_>
        <_>
          <internalNodes>
            0 -1 418 1.0303928866051137e-04</internalNodes>
          <leafValues>
            1.0334748774766922e-01 -4.7917735576629639e-01</leafValues></_>
        <_>
          <internalNodes>
            0 -1 143 3.5456549085211009e-05</internalNodes>
          <leafValues>
            -1.4011457562446594e-01 3.6784023046493530e-01</leafValues></_>
        <_>
          <internalNodes>
            0 -1 79 -7.3447301983833313e-03</internalNodes>
          <leafValues>
            6.7643505334854126e-01 -7.1681648492813110e-02</leafValues></_>
        <_>
          <internalNodes>
            0 -1 123 -1.9031937699764967e-03</internalNodes>
          <leafValues>
            2.0674537122249603e-01 -2.3620095849037170e-01</leafValues></_>
        <_>
          <internalNodes>
            0 -1 295 3.2548487186431885e-02</internalNodes>
          <leafValues>
            8.5141547024250031e-02 -6.5358918905258179e-01</leafValues></_>
        <_>
          <internalNodes>
            0 -1 607 -3.8558384403586388e-03</internalNodes>
          <leafValues>
            4.9740204215049744e-01 -1.2168411910533905e-01</leafValues></_>
        <_>
          <internalNodes>
            0 -1 81 -3.9822538383305073e-03</internalNodes>
          <leafValues>
            -6.9097375869750977e-01 7.2105236351490021e-02</leafValues></_>
        <_>
          <internalNodes>
            0 -1 673 -1.6756448894739151e-04</internalNodes>
          <leafValues>
            2.9347705841064453e-01 -1.6555814445018768e-01</leafValues></_>
        <_>
          <internalNodes>
            0 -1 176 -5.4177432321012020e-04</internalNodes>
          <leafValues>
            2.3075298964977264e-01 -1.9401144981384277e-01</leafValues></_>
        <_>
          <internalNodes>
            0 -1 598 -4.7890758141875267e-03</internalNodes>
          <leafValues>
            3.9815932512283325e-01 -1.1021337658166885e-01</leafValues></_>
        <_>
          <internalNodes>
            0 -1 628 -1.5018472913652658e-04</internalNodes>
          <leafValues>
            -3.8915097713470459e-01 1.2911807000637054e-01</leafValues></_>
        <_>
          <internalNodes>
            0 -1 709 3.1027296790853143e-04</internalNodes>
          <leafValues>
            -1.4124183356761932e-01 3.6411088705062866e-01</leafValues></_>
        <_>
          <internalNodes>
            0 -1 374 -6.1455823015421629e-05</internalNodes>
          <leafValues>
            -4.2734923958778381e-01 1.1698884516954422e-01</leafValues></_>
        <_>
          <internalNodes>
            0 -1 679 3.3472070936113596e-04</internalNodes>
          <leafValues>
            -1.1816009879112244e-01 4.0396353602409363e-01</leafValues></_>
        <_>
          <internalNodes>
            0 -1 665 -1.7539305190439336e-05</internalNodes>
          <leafValues>
            -2.5441473722457886e-01 1.8936276435852051e-01</leafValues></_>
        <_>
          <internalNodes>
            0 -1 543 -7.5260887388139963e-04</internalNodes>
          <leafValues>
            3.5151994228363037e-01 -1.2862682342529297e-01</leafValues></_>
        <_>
          <internalNodes>
            0 -1 501 -3.5844801459461451e-05</internalNodes>
          <leafValues>
            -3.7939590215682983e-01 1.2854067981243134e-01</leafValues></_>
        <_>
          <internalNodes>
            0 -1 100 1.0821768641471863e-01</internalNodes>
          <leafValues>
            -8.7781108915805817e-02 5.8124876022338867e-01</leafValues></_>
        <_>
          <internalNodes>
            0 -1 394 -5.5483035976067185e-04</internalNodes>
          <leafValues>
            3.4538209438323975e-01 -1.2547808885574341e-01</leafValues></_>
        <_>
          <internalNodes>
            0 -1 501 4.6520912292180583e-05</internalNodes>
          <leafValues>
            1.0521853715181351e-01 -4.2316365242004395e-01</leafValues></_>
        <_>
          <internalNodes>
            0 -1 54 -1.1542167514562607e-02</internalNodes>
          <leafValues>
            6.4317393302917480e-01 -7.0030368864536285e-02</leafValues></_>
        <_>
          <internalNodes>
            0 -1 651 5.0908412958960980e-05</internalNodes>
          <leafValues>
            -1.3004881143569946e-01 3.6342534422874451e-01</leafValues></_>
        <_>
          <internalNodes>
            0 -1 135 -2.8132868465036154e-03</internalNodes>
          <leafValues>
            3.9575392007827759e-01 -1.2182604521512985e-01</leafValues></_></weakClassifiers></_>
    <!-- stage 13 -->
    <_>
      <maxWeakCount>43</maxWeakCount>
      <stageThreshold>-8.9237195253372192e-01</stageThreshold>
      <weakClassifiers>
        <_>
          <internalNodes>
            0 -1 446 -2.2471906504506478e-06</internalNodes>
          <leafValues>
            4.1618496179580688e-01 -5.6939501315355301e-02</leafValues></_>
        <_>
          <internalNodes>
            0 -1 104 -6.5472004935145378e-03</internalNodes>
          <leafValues>
            2.2278338670730591e-01 -2.0135106146335602e-01</leafValues></_>
        <_>
          <internalNodes>
            0 -1 253 6.4571056282147765e-04</internalNodes>
          <leafValues>
            -1.2086002528667450e-01 3.2652428746223450e-01</leafValues></_>
        <_>
          <internalNodes>
            0 -1 257 6.3039585947990417e-03</internalNodes>
          <leafValues>
            3.7470918148756027e-02 -6.1659419536590576e-01</leafValues></_>
        <_>
          <internalNodes>
            0 -1 358 -1.3267226750031114e-03</internalNodes>
          <leafValues>
            3.3478960394859314e-01 -1.3171698153018951e-01</leafValues></_>
        <_>
          <internalNodes>
            0 -1 362 -3.7953562568873167e-03</internalNodes>
          <leafValues>
            3.6274993419647217e-01 -9.8763026297092438e-02</leafValues></_>
        <_>
          <internalNodes>
            0 -1 141 1.2681351508945227e-03</internalNodes>
          <leafValues>
            -1.2808731198310852e-01 4.0098956227302551e-01</leafValues></_>
        <_>
          <internalNodes>
            0 -1 464 -5.7373763411305845e-05</internalNodes>
          <leafValues>
            -4.1637936234474182e-01 1.0173133015632629e-01</leafValues></_>
        <_>
          <internalNodes>
            0 -1 372 -5.4749293485656381e-04</internalNodes>
          <leafValues>
            2.8007942438125610e-01 -1.4743815362453461e-01</leafValues></_>
        <_>
          <internalNodes>
            0 -1 222 -6.2778725987300277e-04</internalNodes>
          <leafValues>
            1.7215052247047424e-01 -2.4526248872280121e-01</leafValues></_>
        <_>
          <internalNodes>
            0 -1 347 6.4918068237602711e-03</internalNodes>
          <leafValues>
            1.5673021972179413e-01 -3.0269005894660950e-01</leafValues></_>
        <_>
          <internalNodes>
            0 -1 217 -9.9726486951112747e-03</internalNodes>
          <leafValues>
            2.6093938946723938e-01 -1.6842465102672577e-01</leafValues></_>
        <_>
          <internalNodes>
            0 -1 505 -2.8781299479305744e-03</internalNodes>
          <leafValues>
            4.0691953897476196e-01 -1.0687216371297836e-01</leafValues></_>
        <_>
          <internalNodes>
            0 -1 393 -1.9851092249155045e-02</internalNodes>
          <leafValues>
            -5.9561717510223389e-01 7.8276857733726501e-02</leafValues></_>
        <_>
          <internalNodes>
            0 -1 173 -4.3062405893579125e-05</internalNodes>
          <leafValues>
            2.5026127696037292e-01 -1.5213418006896973e-01</leafValues></_>
        <_>
          <internalNodes>
            0 -1 168 -4.4332329707685858e-05</internalNodes>
          <leafValues>
            -3.2439085841178894e-01 1.2146116793155670e-01</leafValues></_>
        <_>
          <internalNodes>
            0 -1 471 2.2909648250788450e-03</internalNodes>
          <leafValues>
            -8.0783046782016754e-02 4.8470744490623474e-01</leafValues></_>
        <_>
          <internalNodes>
            0 -1 322 -5.5718380026519299e-03</internalNodes>
          <leafValues>
            -6.7257487773895264e-01 6.0338120907545090e-02</leafValues></_>
        <_>
          <internalNodes>
            0 -1 296 5.8947918005287647e-03</internalNodes>
          <leafValues>
            -7.9979851841926575e-02 6.1377942562103271e-01</leafValues></_>
        <_>
          <internalNodes>
            0 -1 169 -2.6909706648439169e-03</internalNodes>
          <leafValues>
            6.5931689739227295e-01 -5.4895974695682526e-02</leafValues></_>
        <_>
          <internalNodes>
            0 -1 497 -1.0080655338242650e-03</internalNodes>
          <leafValues>
            6.5383493900299072e-01 -5.2084986120462418e-02</leafValues></_>
        <_>
          <internalNodes>
            0 -1 583 -3.3943084417842329e-05</internalNodes>
          <leafValues>
            -2.4925352632999420e-01 1.7595531046390533e-01</leafValues></_>
        <_>
          <internalNodes>
            0 -1 28 5.7862373068928719e-04</internalNodes>
          <leafValues>
            -7.4348419904708862e-02 6.0559314489364624e-01</leafValues></_>
        <_>
          <internalNodes>
            0 -1 678 4.2975926771759987e-03</internalNodes>
          <leafValues>
            -9.5173768699169159e-02 4.2892068624496460e-01</leafValues></_>
        <_>
          <internalNodes>
            0 -1 425 -3.3900032576639205e-05</internalNodes>
          <leafValues>
            -2.8585016727447510e-01 1.5956488251686096e-01</leafValues></_>
        <_>
          <internalNodes>
            0 -1 36 3.3593691885471344e-02</internalNodes>
          <leafValues>
            -6.3304729759693146e-02 7.2319126129150391e-01</leafValues></_>
        <_>
          <internalNodes>
            0 -1 610 2.1650434064213187e-04</internalNodes>
          <leafValues>
            -1.0230971872806549e-01 3.6940267682075500e-01</leafValues></_>
        <_>
          <internalNodes>
            0 -1 346 -1.2408811599016190e-03</internalNodes>
          <leafValues>
            -7.4980354309082031e-01 6.1199933290481567e-02</leafValues></_>
        <_>
          <internalNodes>
            0 -1 636 2.0938643720000982e-03</internalNodes>
          <leafValues>
            -8.1252522766590118e-02 5.7633477449417114e-01</leafValues></_>
        <_>
          <internalNodes>
            0 -1 601 -1.2082161847501993e-03</internalNodes>
          <leafValues>
            3.6139920353889465e-01 -1.0934614390134811e-01</leafValues></_>
        <_>
          <internalNodes>
            0 -1 708 -4.8817084461916238e-05</internalNodes>
          <leafValues>
            3.5039308667182922e-01 -1.1791795492172241e-01</leafValues></_>
        <_>
          <internalNodes>
            0 -1 337 -8.6414907127618790e-04</internalNodes>
          <leafValues>
            -6.6353356838226318e-01 7.1819536387920380e-02</leafValues></_>
        <_>
          <internalNodes>
            0 -1 676 -2.5746167011675425e-05</internalNodes>
          <leafValues>
            2.6868048310279846e-01 -1.7199896275997162e-01</leafValues></_>
        <_>
          <internalNodes>
            0 -1 590 1.4711412950418890e-04</internalNodes>
          <leafValues>
            -1.5684275329113007e-01 2.8298068046569824e-01</leafValues></_>
        <_>
          <internalNodes>
            0 -1 127 2.3468732833862305e-03</internalNodes>
          <leafValues>
            1.0744683444499969e-01 -4.6541848778724670e-01</leafValues></_>
        <_>
          <internalNodes>
            0 -1 206 -1.6299854905810207e-05</internalNodes>
          <leafValues>
            -2.8870260715484619e-01 1.4563228189945221e-01</leafValues></_>
        <_>
          <internalNodes>
            0 -1 164 -5.3194432985037565e-04</internalNodes>
          <leafValues>
            1.7353416979312897e-01 -2.6799163222312927e-01</leafValues></_>
        <_>
          <internalNodes>
            0 -1 112 1.4442575629800558e-03</internalNodes>
          <leafValues>
            -8.3678551018238068e-02 5.3641301393508911e-01</leafValues></_>
        <_>
          <internalNodes>
            0 -1 64 -1.0050978744402528e-04</internalNodes>
          <leafValues>
            2.9725894331932068e-01 -1.3788019120693207e-01</leafValues></_>
        <_>
          <internalNodes>
            0 -1 75 -1.0681199637474492e-04</internalNodes>
          <leafValues>
            2.3612809181213379e-01 -1.7017474770545959e-01</leafValues></_>
        <_>
          <internalNodes>
            0 -1 78 -1.8299348652362823e-02</internalNodes>
          <leafValues>
            3.3881929516792297e-01 -1.2321557849645615e-01</leafValues></_>
        <_>
          <internalNodes>
            0 -1 366 1.8194365839008242e-04</internalNodes>
          <leafValues>
            -2.1871244907379150e-01 1.9755710661411285e-01</leafValues></_>
        <_>
          <internalNodes>
            0 -1 224 4.7660089330747724e-04</internalNodes>
          <leafValues>
            7.8728005290031433e-02 -5.8416861295700073e-01</leafValues></_></weakClassifiers></_>
    <!-- stage 14 -->
    <_>
      <maxWeakCount>52</maxWeakCount>
      <stageThreshold>-8.9120978116989136e-01</stageThreshold>
      <weakClassifiers>
        <_>
          <internalNodes>
            0 -1 456 4.6852729283273220e-03</internalNodes>
          <leafValues>
            1.0298363864421844e-01 5.2228164672851562e-01</leafValues></_>
        <_>
          <internalNodes>
            0 -1 269 5.1926443120464683e-04</internalNodes>
          <leafValues>
            -1.6523209214210510e-01 2.4231214821338654e-01</leafValues></_>
        <_>
          <internalNodes>
            0 -1 46 -7.7918320894241333e-02</internalNodes>
          <leafValues>
            2.7517434954643250e-01 -1.4499029517173767e-01</leafValues></_>
        <_>
          <internalNodes>
            0 -1 356 1.4273683773353696e-03</internalNodes>
          <leafValues>
            -1.0023691505193710e-01 5.9928882122039795e-01</leafValues></_>
        <_>
          <internalNodes>
            0 -1 458 3.5657486296258867e-04</internalNodes>
          <leafValues>
            -9.1817542910575867e-02 4.2249593138694763e-01</leafValues></_>
        <_>
          <internalNodes>
            0 -1 235 -5.2736257202923298e-03</internalNodes>
          <leafValues>
            -7.1248382329940796e-01 7.1872062981128693e-02</leafValues></_>
        <_>
          <internalNodes>
            0 -1 704 6.1095779528841376e-04</internalNodes>
          <leafValues>
            -1.2586672604084015e-01 3.0771529674530029e-01</leafValues></_>
        <_>
          <internalNodes>
            0 -1 210 -7.3800105601549149e-03</internalNodes>
          <leafValues>
            -5.0199782848358154e-01 6.8393461406230927e-02</leafValues></_>
        <_>
          <internalNodes>
            0 -1 567 -1.5588044334435835e-05</internalNodes>
          <leafValues>
            -2.5687655806541443e-01 1.4574277400970459e-01</leafValues></_>
        <_>
          <internalNodes>
            0 -1 13 4.2498705442994833e-04</internalNodes>
          <leafValues>
            -9.1415956616401672e-02 4.0242189168930054e-01</leafValues></_>
        <_>
          <internalNodes>
            0 -1 398 -4.4196643284521997e-04</internalNodes>
          <leafValues>
            -7.0037835836410522e-01 5.5413451045751572e-02</leafValues></_>
        <_>
          <internalNodes>
            0 -1 163 1.2061037123203278e-03</internalNodes>
          <leafValues>
            -1.1181847006082535e-01 3.6244112253189087e-01</leafValues></_>
        <_>
          <internalNodes>
            0 -1 400 5.5244186660274863e-04</internalNodes>
          <leafValues>
            -1.3665869832038879e-01 2.7523055672645569e-01</leafValues></_>
        <_>
          <internalNodes>
            0 -1 214 -1.0609619785100222e-03</internalNodes>
          <leafValues>
            3.8645765185356140e-01 -1.0851477831602097e-01</leafValues></_>
        <_>
          <internalNodes>
            0 -1 313 -5.5226869881153107e-03</internalNodes>
          <leafValues>
            2.5117668509483337e-01 -1.7074142396450043e-01</leafValues></_>
        <_>
          <internalNodes>
            0 -1 554 1.5529762953519821e-02</internalNodes>
          <leafValues>
            -7.2274342179298401e-02 6.2379896640777588e-01</leafValues></_>
        <_>
          <internalNodes>
            0 -1 563 -2.9820453375577927e-02</internalNodes>
          <leafValues>
            -7.2968190908432007e-01 7.2121337056159973e-02</leafValues></_>
        <_>
          <internalNodes>
            0 -1 178 -3.5933040082454681e-02</internalNodes>
          <leafValues>
            -5.0304543972015381e-01 7.8319042921066284e-02</leafValues></_>
        <_>
          <internalNodes>
            0 -1 660 1.1358708143234253e-02</internalNodes>
          <leafValues>
            7.2575420141220093e-02 -5.5487990379333496e-01</leafValues></_>
        <_>
          <internalNodes>
            0 -1 256 -1.5369865577667952e-03</internalNodes>
          <leafValues>
            -7.9623138904571533e-01 5.0325673073530197e-02</leafValues></_>
        <_>
          <internalNodes>
            0 -1 435 -3.9356541819870472e-03</internalNodes>
          <leafValues>
            3.6545917391777039e-01 -1.1618310958147049e-01</leafValues></_>
        <_>
          <internalNodes>
            0 -1 116 1.0610425844788551e-02</internalNodes>
          <leafValues>
            -9.0666837990283966e-02 4.4156101346015930e-01</leafValues></_>
        <_>
          <internalNodes>
            0 -1 110 -6.9000148214399815e-03</internalNodes>
          <leafValues>
            3.4340474009513855e-01 -1.2237451970577240e-01</leafValues></_>
        <_>
          <internalNodes>
            0 -1 594 -3.6282453220337629e-03</internalNodes>
          <leafValues>
            3.1455656886100769e-01 -1.2402886897325516e-01</leafValues></_>
        <_>
          <internalNodes>
            0 -1 408 -1.7888904039864428e-05</internalNodes>
          <leafValues>
            -3.0844527482986450e-01 1.3458421826362610e-01</leafValues></_>
        <_>
          <internalNodes>
            0 -1 551 -1.1335074668750167e-04</internalNodes>
          <leafValues>
            5.7398772239685059e-01 -7.1098335087299347e-02</leafValues></_>
        <_>
          <internalNodes>
            0 -1 474 3.9482583815697581e-05</internalNodes>
          <leafValues>
            1.0976855456829071e-01 -3.7241652607917786e-01</leafValues></_>
        <_>
          <internalNodes>
            0 -1 193 1.0292567312717438e-02</internalNodes>
          <leafValues>
            4.7464489936828613e-02 -8.6104828119277954e-01</leafValues></_>
        <_>
          <internalNodes>
            0 -1 706 -3.2662537705618888e-05</internalNodes>
          <leafValues>
            2.9592588543891907e-01 -1.4481452107429504e-01</leafValues></_>
        <_>
          <internalNodes>
            0 -1 108 -1.6229096218012273e-04</internalNodes>
          <leafValues>
            4.6429085731506348e-01 -9.5220752060413361e-02</leafValues></_>
        <_>
          <internalNodes>
            0 -1 460 -7.4462906923145056e-04</internalNodes>
          <leafValues>
            -5.0508332252502441e-01 8.8212653994560242e-02</leafValues></_>
        <_>
          <internalNodes>
            0 -1 548 -8.1216567195951939e-06</internalNodes>
          <leafValues>
            2.2602656483650208e-01 -1.9099909067153931e-01</leafValues></_>
        <_>
          <internalNodes>
            0 -1 61 -3.8939795922487974e-04</internalNodes>
          <leafValues>
            -2.8285178542137146e-01 1.4640897512435913e-01</leafValues></_>
        <_>
          <internalNodes>
            0 -1 623 -5.4550595814362168e-04</internalNodes>
          <leafValues>
            4.2083382606506348e-01 -1.0110485553741455e-01</leafValues></_>
        <_>
          <internalNodes>
            0 -1 376 -7.0357476943172514e-05</internalNodes>
          <leafValues>
            -5.0568753480911255e-01 8.2971923053264618e-02</leafValues></_>
        <_>
          <internalNodes>
            0 -1 49 3.6768690915778279e-04</internalNodes>
          <leafValues>
            -1.1651775240898132e-01 3.7972119450569153e-01</leafValues></_>
        <_>
          <internalNodes>
            0 -1 73 2.0068727899342775e-03</internalNodes>
          <leafValues>
            -1.2317168712615967e-01 3.5160872340202332e-01</leafValues></_>
        <_>
          <internalNodes>
            0 -1 293 -1.2892605736851692e-03</internalNodes>
          <leafValues>
            -8.6652910709381104e-01 5.0870977342128754e-02</leafValues></_>
        <_>
          <internalNodes>
            0 -1 482 3.9035279769450426e-04</internalNodes>
          <leafValues>
            -7.6939538121223450e-02 6.7020434141159058e-01</leafValues></_>
        <_>
          <internalNodes>
            0 -1 263 3.6681033670902252e-03</internalNodes>
          <leafValues>
            -1.5571317076683044e-01 2.6210439205169678e-01</leafValues></_>
        <_>
          <internalNodes>
            0 -1 470 5.3143920376896858e-03</internalNodes>
          <leafValues>
            -1.3692091405391693e-01 3.2024994492530823e-01</leafValues></_>
        <_>
          <internalNodes>
            0 -1 614 3.6986339837312698e-02</internalNodes>
          <leafValues>
            5.7260680943727493e-02 -9.4009536504745483e-01</leafValues></_>
        <_>
          <internalNodes>
            0 -1 431 7.9721343354322016e-05</internalNodes>
          <leafValues>
            1.2290309369564056e-01 -3.4331855177879333e-01</leafValues></_>
        <_>
          <internalNodes>
            0 -1 572 3.5929121077060699e-03</internalNodes>
          <leafValues>
            -2.5235232710838318e-01 1.6998711228370667e-01</leafValues></_>
        <_>
          <internalNodes>
            0 -1 53 1.9140709191560745e-02</internalNodes>
          <leafValues>
            -9.9466867744922638e-02 4.5325955748558044e-01</leafValues></_>
        <_>
          <internalNodes>
            0 -1 223 -1.9129240885376930e-02</internalNodes>
          <leafValues>
            -7.1022123098373413e-01 6.8537466228008270e-02</leafValues></_>
        <_>
          <internalNodes>
            0 -1 40 1.1420601367717609e-04</internalNodes>
          <leafValues>
            -1.7216543853282928e-01 2.7438694238662720e-01</leafValues></_>
        <_>
          <internalNodes>
            0 -1 503 -6.5181920945178717e-06</internalNodes>
          <leafValues>
            -2.6296088099479675e-01 1.6401167213916779e-01</leafValues></_>
        <_>
          <internalNodes>
            0 -1 172 7.8070000745356083e-04</internalNodes>
          <leafValues>
            -9.4220690429210663e-02 4.3548715114593506e-01</leafValues></_>
        <_>
          <internalNodes>
            0 -1 688 -5.9885911468882114e-05</internalNodes>
          <leafValues>
            2.6808398962020874e-01 -1.5691769123077393e-01</leafValues></_>
        <_>
          <internalNodes>
            0 -1 452 -2.3938100785017014e-02</internalNodes>
          <leafValues>
            -8.1050503253936768e-01 5.1812738180160522e-02</leafValues></_>
        <_>
          <internalNodes>
            0 -1 641 7.6178903691470623e-04</internalNodes>
          <leafValues>
            -6.7368336021900177e-02 7.5701874494552612e-01</leafValues></_></weakClassifiers></_>
    <!-- stage 15 -->
    <_>
      <maxWeakCount>45</maxWeakCount>
      <stageThreshold>-9.1850024461746216e-01</stageThreshold>
      <weakClassifiers>
        <_>
          <internalNodes>
            0 -1 80 -2.4523234367370605e-01</internalNodes>
          <leafValues>
            5.1001542806625366e-01 7.2555206716060638e-02</leafValues></_>
        <_>
          <internalNodes>
            0 -1 426 -1.0688991285860538e-02</internalNodes>
          <leafValues>
            3.9645084738731384e-01 -1.1299482733011246e-01</leafValues></_>
        <_>
          <internalNodes>
            0 -1 310 -8.7411887943744659e-03</internalNodes>
          <leafValues>
            3.3683943748474121e-01 -1.2953223288059235e-01</leafValues></_>
        <_>
          <internalNodes>
            0 -1 466 2.0420215150807053e-04</internalNodes>
          <leafValues>
            -2.2237738966941833e-01 1.7355439066886902e-01</leafValues></_>
        <_>
          <internalNodes>
            0 -1 174 -2.4577323347330093e-04</internalNodes>
          <leafValues>
            2.1475511789321899e-01 -1.9088122248649597e-01</leafValues></_>
        <_>
          <internalNodes>
            0 -1 85 -6.1785029247403145e-03</internalNodes>
          <leafValues>
            6.6332560777664185e-01 -5.7526271790266037e-02</leafValues></_>
        <_>
          <internalNodes>
