<?xml version="1.0"?>
<opencv_storage>
<stage15>
  <maxWeakCount>45</maxWeakCount>
  <stageThreshold>-9.1850024461746216e-01</stageThreshold>
  <weakClassifiers>
    <_>
      <internalNodes>
        0 -1 1982432 -2.4523234367370605e-01</internalNodes>
      <leafValues>
        5.1001542806625366e-01 7.2555206716060638e-02</leafValues></_>
    <_>
      <internalNodes>
        0 -1 5393078 -1.0688991285860538e-02</internalNodes>
      <leafValues>
        3.9645084738731384e-01 -1.1299482733011246e-01</leafValues></_>
    <_>
      <internalNodes>
        0 -1 4742213 -8.7411887943744659e-03</internalNodes>
      <leafValues>
        3.3683943748474121e-01 -1.2953223288059235e-01</leafValues></_>
    <_>
      <internalNodes>
        0 -1 5587602 2.0420215150807053e-04</internalNodes>
      <leafValues>
        -2.2237738966941833e-01 1.7355439066886902e-01</leafValues></_>
    <_>
      <internalNodes>
        0 -1 3463185 -2.4577323347330093e-04</internalNodes>
      <leafValues>
        2.1475511789321899e-01 -1.9088122248649597e-01</leafValues></_>
    <_>
      <internalNodes>
        0 -1 2015730 -6.1785029247403145e-03</internalNodes>
      <leafValues>
        6.6332560777664185e-01 -5.7526271790266037e-02</leafValues></_>
    <_>
      <internalNodes>
        0 -1 5226808 -1.5903147868812084e-03</internalNodes>
      <leafValues>
        -7.6052141189575195e-01 5.4458614438772202e-02</leafValues></_>
    <_>
      <internalNodes>
        0 -1 3417084 -2.7414895157562569e-05</internalNodes>
      <leafValues>
        -2.7836132049560547e-01 1.4811299741268158e-01</leafValues></_>
    <_>
      <internalNodes>
        0 -1 2754049 6.3801446231082082e-04</internalNodes>
      <leafValues>
        -1.4076323807239532e-01 2.9576686024665833e-01</leafValues></_>
    <_>
      <internalNodes>
        0 -1 5857191 -1.4246036298573017e-03</internalNodes>
      <leafValues>
        2.4662403762340546e-01 -1.6466464102268219e-01</leafValues></_>
    <_>
      <internalNodes>
        0 -1 4758132 8.1804394721984863e-03</internalNodes>
      <leafValues>
        -8.8784381747245789e-02 4.2300415039062500e-01</leafValues></_>
    <_>
      <internalNodes>
        0 -1 7748889 -3.3280509524047375e-03</internalNodes>
      <leafValues>
        4.8128822445869446e-01 -8.7612189352512360e-02</leafValues></_>
    <_>
      <internalNodes>
        0 -1 5056390 -1.1746032396331429e-04</internalNodes>
      <leafValues>
        -4.9556657671928406e-01 9.0705677866935730e-02</leafValues></_>
    <_>
      <internalNodes>
        0 -1 4877850 -5.7715669274330139e-02</internalNodes>
      <leafValues>
        -7.5003457069396973e-01 4.7458972781896591e-02</leafValues></_>
    <_>
      <internalNodes>
        0 -1 3446843 4.3829558417201042e-03</internalNodes>
      <leafValues>
        -9.6586853265762329e-02 5.0129294395446777e-01</leafValues></_>
    <_>
      <internalNodes>
        0 -1 4055678 -4.3598739430308342e-03</internalNodes>
      <leafValues>
        1.6688640415668488e-01 -2.6587775349617004e-01</leafValues></_>
    <_>
      <internalNodes>
        0 -1 6406164 -6.8569679569918662e-06</internalNodes>
      <leafValues>
        -2.1917675435543060e-01 1.8479739129543304e-01</leafValues></_>
    <_>
      <internalNodes>
        0 -1 6930838 1.0992167517542839e-05</internalNodes>
      <leafValues>
        1.6891753673553467e-01 -2.3793523013591766e-01</leafValues></_>
    <_>
      <internalNodes>
        0 -1 7653552 -2.1987139189150184e-04</internalNodes>
      <leafValues>
        4.3765693902969360e-01 -1.0687270015478134e-01</leafValues></_>
    <_>
      <internalNodes>
        0 -1 7564588 7.0146261714398861e-04</internalNodes>
      <leafValues>
        -1.1551512032747269e-01 3.3839014172554016e-01</leafValues></_>
    <_>
      <internalNodes>
        0 -1 6649008 -5.7939537327911239e-06</internalNodes>
      <leafValues>
        -1.8983896076679230e-01 2.2417131066322327e-01</leafValues></_>
    <_>
      <internalNodes>
        0 -1 5027823 1.7769753932952881e-02</internalNodes>
      <leafValues>
        -7.4223935604095459e-02 6.4608919620513916e-01</leafValues></_>
    <_>
      <internalNodes>
        0 -1 4869721 -6.2437509768642485e-05</internalNodes>
      <leafValues>
        -3.4574806690216064e-01 1.3620422780513763e-01</leafValues></_>
    <_>
      <internalNodes>
        0 -1 3262706 -2.5690624024719000e-03</internalNodes>
      <leafValues>
        -8.2797884941101074e-01 5.3947739303112030e-02</leafValues></_>
    <_>
      <internalNodes>
        0 -1 3184388 1.2528797611594200e-02</internalNodes>
      <leafValues>
        -8.1845074892044067e-02 6.2168872356414795e-01</leafValues></_>
    <_>
      <internalNodes>
        0 -1 4367103 -1.7396097537130117e-03</internalNodes>
      <leafValues>
        2.4825766682624817e-01 -1.5690718591213226e-01</leafValues></_>
    <_>
      <internalNodes>
        0 -1 5189004 -6.7786325234919786e-04</internalNodes>
      <leafValues>
        2.7422705292701721e-01 -1.4985375106334686e-01</leafValues></_>
    <_>
      <internalNodes>
        0 -1 3912189 2.1182915195822716e-02</internalNodes>
      <leafValues>
        9.2679068446159363e-02 -5.6944954395294189e-01</leafValues></_>
    <_>
      <internalNodes>
        0 -1 2084150 -1.9639225210994482e-03</internalNodes>
      <leafValues>
        4.8136296868324280e-01 -8.3129726350307465e-02</leafValues></_>
    <_>
      <internalNodes>
        0 -1 5878695 -7.9604433267377317e-05</internalNodes>
      <leafValues>
        -3.3881998062133789e-01 1.2175038456916809e-01</leafValues></_>
    <_>
      <internalNodes>
        0 -1 5007024 4.6581602655351162e-03</internalNodes>
      <leafValues>
        -5.5545881390571594e-02 7.6555079221725464e-01</leafValues></_>
    <_>
      <internalNodes>
        0 -1 4194412 -1.1374300345778465e-02</internalNodes>
      <leafValues>
        -6.6523623466491699e-01 6.9137677550315857e-02</leafValues></_>
    <_>
      <internalNodes>
        0 -1 7724496 8.1724626943469048e-04</internalNodes>
      <leafValues>
        -8.6691752076148987e-02 4.8235169053077698e-01</leafValues></_>
    <_>
      <internalNodes>
        0 -1 3847036 -3.6115053808316588e-04</internalNodes>
      <leafValues>
        -5.1802080869674683e-01 8.1290550529956818e-02</leafValues></_>
    <_>
      <internalNodes>
        0 -1 2162844 8.8115531252697110e-04</internalNodes>
      <leafValues>
        -1.2230265140533447e-01 3.4730428457260132e-01</leafValues></_>
    <_>
      <internalNodes>
        0 -1 7144301 2.8196736238896847e-03</internalNodes>
      <leafValues>
        -1.0434969514608383e-01 3.6004015803337097e-01</leafValues></_>
    <_>
      <internalNodes>
        0 -1 5161115 1.1740309855667874e-04</internalNodes>
      <leafValues>
        -1.7304772138595581e-01 2.1634097397327423e-01</leafValues></_>
    <_>
      <internalNodes>
        0 -1 6135333 -2.3046301794238389e-04</internalNodes>
      <leafValues>
        3.2816877961158752e-01 -1.2551115453243256e-01</leafValues></_>
    <_>
      <internalNodes>
        0 -1 15951 -8.7619555415585637e-05</internalNodes>
      <leafValues>
        -3.1008234620094299e-01 1.4196185767650604e-01</leafValues></_>
    <_>
      <internalNodes>
        0 -1 1846636 5.8110598474740982e-03</internalNodes>
      <leafValues>
        9.4854496419429779e-02 -4.9682840704917908e-01</leafValues></_>
    <_>
      <internalNodes>
        0 -1 2876631 3.5693019162863493e-04</internalNodes>
      <leafValues>
        -1.5075147151947021e-01 2.8352504968643188e-01</leafValues></_>
    <_>
      <internalNodes>
        0 -1 4820116 1.6357057029381394e-04</internalNodes>
      <leafValues>
        7.5579598546028137e-02 -6.0021924972534180e-01</leafValues></_>
    <_>
      <internalNodes>
        0 -1 1105699 -1.0681083949748427e-04</internalNodes>
      <leafValues>
        2.8513017296791077e-01 -1.5173046290874481e-01</leafValues></_>
    <_>
      <internalNodes>
        0 -1 5002574 -1.2682935921475291e-03</internalNodes>
      <leafValues>
        4.5097878575325012e-01 -8.7305299937725067e-02</leafValues></_>
    <_>
      <internalNodes>
        0 -1 6413886 -2.6160570996580645e-05</internalNodes>
      <leafValues>
        -3.0813804268836975e-01 1.2934543192386627e-01</leafValues></_></weakClassifiers></stage15>
</opencv_storage>
