<?xml version="1.0"?>
<opencv_storage>
<stage1>
  <maxWeakCount>23</maxWeakCount>
  <stageThreshold>-1.3401434421539307e+00</stageThreshold>
  <weakClassifiers>
    <_>
      <internalNodes>
        0 -1 4087957 -1.5783926472067833e-02</internalNodes>
      <leafValues>
        5.9371727705001831e-01 -2.5891473889350891e-01</leafValues></_>
    <_>
      <internalNodes>
        0 -1 2826046 -2.8932215645909309e-03</internalNodes>
      <leafValues>
        5.4046434164047241e-01 -2.3182320594787598e-01</leafValues></_>
    <_>
      <internalNodes>
        0 -1 4123356 -9.8553718999028206e-03</internalNodes>
      <leafValues>
        5.9061861038208008e-01 -1.6786436736583710e-01</leafValues></_>
    <_>
      <internalNodes>
        0 -1 5926604 -3.5716123878955841e-02</internalNodes>
      <leafValues>
        -8.0998992919921875e-01 1.1499883234500885e-01</leafValues></_>
    <_>
      <internalNodes>
        0 -1 6142953 -1.8988233059644699e-03</internalNodes>
      <leafValues>
        3.0922845005989075e-01 -3.0676698684692383e-01</leafValues></_>
    <_>
      <internalNodes>
        0 -1 276494 -1.3500836212188005e-03</internalNodes>
      <leafValues>
        4.9733600020408630e-01 -1.9038541615009308e-01</leafValues></_>
    <_>
      <internalNodes>
        0 -1 5264518 -5.4856884526088834e-04</internalNodes>
      <leafValues>
        -8.2936632633209229e-01 1.1624151468276978e-01</leafValues></_>
    <_>
      <internalNodes>
        0 -1 3188438 -1.4388919807970524e-03</internalNodes>
      <leafValues>
        4.7530859708786011e-01 -2.2134353220462799e-01</leafValues></_>
    <_>
      <internalNodes>
        0 -1 5571393 -2.3507582955062389e-03</internalNodes>
      <leafValues>
        3.9501333236694336e-01 -2.3254458606243134e-01</leafValues></_>
    <_>
      <internalNodes>
        0 -1 5004181 -2.2956207394599915e-03</internalNodes>
      <leafValues>
        4.3053740262985229e-01 -2.1018686890602112e-01</leafValues></_>
    <_>
      <internalNodes>
        0 -1 2694723 1.0470604756847024e-03</internalNodes>
      <leafValues>
        -2.8526970744132996e-01 3.5290297865867615e-01</leafValues></_>
    <_>
      <internalNodes>
        0 -1 6899729 -1.2087597278878093e-03</internalNodes>
      <leafValues>
        4.6070384979248047e-01 -1.8197344243526459e-01</leafValues></_>
    <_>
      <internalNodes>
        0 -1 770115 -1.0372982360422611e-03</internalNodes>
      <leafValues>
        3.4467497467994690e-01 -2.7206340432167053e-01</leafValues></_>
    <_>
      <internalNodes>
        0 -1 2719183 3.6671047564595938e-03</internalNodes>
      <leafValues>
        -1.7594270408153534e-01 5.6244945526123047e-01</leafValues></_>
    <_>
      <internalNodes>
        0 -1 4830326 4.6805747842881829e-05</internalNodes>
      <leafValues>
        1.8470983207225800e-01 -5.0912994146347046e-01</leafValues></_>
    <_>
      <internalNodes>
        0 -1 444834 -8.0680410610511899e-04</internalNodes>
      <leafValues>
        3.7019556760787964e-01 -2.5714576244354248e-01</leafValues></_>
    <_>
      <internalNodes>
        0 -1 4713563 -9.3361100880429149e-04</internalNodes>
      <leafValues>
        -6.2261354923248291e-01 1.4408423006534576e-01</leafValues></_>
    <_>
      <internalNodes>
        0 -1 5689534 -2.6008570566773415e-03</internalNodes>
      <leafValues>
        3.3637410402297974e-01 -2.9681426286697388e-01</leafValues></_>
    <_>
      <internalNodes>
        0 -1 1571352 -2.5865720817819238e-04</internalNodes>
      <leafValues>
        4.3981432914733887e-01 -2.1509890258312225e-01</leafValues></_>
    <_>
      <internalNodes>
        0 -1 1871441 -2.9376316815614700e-03</internalNodes>
      <leafValues>
        3.8031160831451416e-01 -2.5413775444030762e-01</leafValues></_>
    <_>
      <internalNodes>
        0 -1 7738167 -1.6656020306982100e-04</internalNodes>
      <leafValues>
        4.6508327126502991e-01 -2.2206893563270569e-01</leafValues></_>
    <_>
      <internalNodes>
        0 -1 7182193 1.4112002099864185e-04</internalNodes>
      <leafValues>
        -2.1049712598323822e-01 4.5520845055580139e-01</leafValues></_>
    <_>
      <internalNodes>
        0 -1 5992584 -1.2922056484967470e-03</internalNodes>
      <leafValues>
        3.7072011828422546e-01 -2.5156685709953308e-01</leafValues></_></weakClassifiers></stage1>
</opencv_storage>
