<?xml version="1.0"?>
<opencv_storage>
<stage9>
  <maxWeakCount>33</maxWeakCount>
  <stageThreshold>-9.0907490253448486e-01</stageThreshold>
  <weakClassifiers>
    <_>
      <internalNodes>
        0 -1 6308271 4.4151484034955502e-03</internalNodes>
      <leafValues>
        -6.4516127109527588e-02 4.1842609643936157e-01</leafValues></_>
    <_>
      <internalNodes>
        0 -1 6780938 5.1739579066634178e-03</internalNodes>
      <leafValues>
        -1.9594588875770569e-01 3.1750085949897766e-01</leafValues></_>
    <_>
      <internalNodes>
        0 -1 3771106 -7.0914747193455696e-03</internalNodes>
      <leafValues>
        4.2258238792419434e-01 -1.2529590725898743e-01</leafValues></_>
    <_>
      <internalNodes>
        0 -1 5066497 1.1768876720452681e-04</internalNodes>
      <leafValues>
        -1.2464939802885056e-01 5.1890778541564941e-01</leafValues></_>
    <_>
      <internalNodes>
        0 -1 5053257 -5.7757031172513962e-03</internalNodes>
      <leafValues>
        -6.8842965364456177e-01 1.0737230628728867e-01</leafValues></_>
    <_>
      <internalNodes>
        0 -1 5784683 -1.9768878701142967e-04</internalNodes>
      <leafValues>
        2.5369524955749512e-01 -2.1810255944728851e-01</leafValues></_>
    <_>
      <internalNodes>
        0 -1 7745706 1.6698491526767612e-04</internalNodes>
      <leafValues>
        -9.6596896648406982e-02 7.0285367965698242e-01</leafValues></_>
    <_>
      <internalNodes>
        0 -1 2585119 2.6969118043780327e-03</internalNodes>
      <leafValues>
        -1.3704772293567657e-01 3.5442817211151123e-01</leafValues></_>
    <_>
      <internalNodes>
        0 -1 6584976 1.3458821922540665e-03</internalNodes>
      <leafValues>
        -1.4811965823173523e-01 3.3095484972000122e-01</leafValues></_>
    <_>
      <internalNodes>
        0 -1 5154508 4.3037423165515065e-04</internalNodes>
      <leafValues>
        7.0106551051139832e-02 -7.4245601892471313e-01</leafValues></_>
    <_>
      <internalNodes>
        0 -1 470345 -7.0372407208196819e-05</internalNodes>
      <leafValues>
        4.5882162451744080e-01 -1.1164520680904388e-01</leafValues></_>
    <_>
      <internalNodes>
        0 -1 5459689 4.0211239829659462e-03</internalNodes>
      <leafValues>
        -1.0337047278881073e-01 4.3694537878036499e-01</leafValues></_>
    <_>
      <internalNodes>
        0 -1 3596393 -1.4278108719736338e-03</internalNodes>
      <leafValues>
        5.5062067508697510e-01 -7.8272521495819092e-02</leafValues></_>
    <_>
      <internalNodes>
        0 -1 5348973 7.9750234726816416e-04</internalNodes>
      <leafValues>
        -1.9707666337490082e-01 2.6063957810401917e-01</leafValues></_>
    <_>
      <internalNodes>
        0 -1 5130637 -9.2862481251358986e-03</internalNodes>
      <leafValues>
        -4.9329918622970581e-01 1.0816662758588791e-01</leafValues></_>
    <_>
      <internalNodes>
        0 -1 7594448 -2.7422810671851039e-04</internalNodes>
      <leafValues>
        3.7976324558258057e-01 -1.3123989105224609e-01</leafValues></_>
    <_>
      <internalNodes>
        0 -1 6158802 -2.4211221898440272e-05</internalNodes>
      <leafValues>
        -3.4725540876388550e-01 1.4106220006942749e-01</leafValues></_>
    <_>
      <internalNodes>
        0 -1 7560953 2.3737008450552821e-04</internalNodes>
      <leafValues>
        -1.1685106158256531e-01 4.1342166066169739e-01</leafValues></_>
    <_>
      <internalNodes>
        0 -1 6984079 -1.0331962257623672e-03</internalNodes>
      <leafValues>
        3.3156928420066833e-01 -1.4620944857597351e-01</leafValues></_>
    <_>
      <internalNodes>
        0 -1 4109187 -4.0125727537088096e-04</internalNodes>
      <leafValues>
        -6.0461908578872681e-01 9.7310915589332581e-02</leafValues></_>
    <_>
      <internalNodes>
        0 -1 6837633 2.9844450764358044e-03</internalNodes>
      <leafValues>
        -1.7005601525306702e-01 3.1445676088333130e-01</leafValues></_>
    <_>
      <internalNodes>
        0 -1 7715120 -1.2074429541826248e-03</internalNodes>
      <leafValues>
        3.8145184516906738e-01 -1.1526713520288467e-01</leafValues></_>
    <_>
      <internalNodes>
        0 -1 6977637 1.6310170758515596e-04</internalNodes>
      <leafValues>
        1.3608033955097198e-01 -3.5641664266586304e-01</leafValues></_>
    <_>
      <internalNodes>
        0 -1 2007257 -3.5983505658805370e-03</internalNodes>
      <leafValues>
        8.0648726224899292e-01 -6.6799663007259369e-02</leafValues></_>
    <_>
      <internalNodes>
        0 -1 1650272 1.4694893616251647e-04</internalNodes>
      <leafValues>
        -1.2361573427915573e-01 3.5940444469451904e-01</leafValues></_>
    <_>
      <internalNodes>
        0 -1 5366201 -6.3803110970184207e-04</internalNodes>
      <leafValues>
        -7.7489387989044189e-01 7.0421919226646423e-02</leafValues></_>
    <_>
      <internalNodes>
        0 -1 775583 -8.3583130617626011e-05</internalNodes>
      <leafValues>
        3.5885572433471680e-01 -1.4972494542598724e-01</leafValues></_>
    <_>
      <internalNodes>
        0 -1 6688177 1.1714009568095207e-02</internalNodes>
      <leafValues>
        1.0167936980724335e-01 -5.1838862895965576e-01</leafValues></_>
    <_>
      <internalNodes>
        0 -1 3840987 7.1826381608843803e-03</internalNodes>
      <leafValues>
        5.3196743130683899e-02 -8.4023177623748779e-01</leafValues></_>
    <_>
      <internalNodes>
        0 -1 6017933 -6.4689328428357840e-04</internalNodes>
      <leafValues>
        2.5278824567794800e-01 -1.9961877167224884e-01</leafValues></_>
    <_>
      <internalNodes>
        0 -1 4038964 -1.5055193216539919e-05</internalNodes>
      <leafValues>
        -2.5485458970069885e-01 1.8630905449390411e-01</leafValues></_>
    <_>
      <internalNodes>
        0 -1 7735299 2.9733829433098435e-04</internalNodes>
      <leafValues>
        -1.4204046130180359e-01 3.7433972954750061e-01</leafValues></_>
    <_>
      <internalNodes>
        0 -1 6052475 -3.6538948188535869e-04</internalNodes>
      <leafValues>
        7.4280226230621338e-01 -6.5797038376331329e-02</leafValues></_></weakClassifiers></stage9>
</opencv_storage>
