<?xml version="1.0"?>
<opencv_storage>
<stage5>
  <maxWeakCount>27</maxWeakCount>
  <stageThreshold>-1.0706037282943726e+00</stageThreshold>
  <weakClassifiers>
    <_>
      <internalNodes>
        0 -1 5378661 -2.4212936114054173e-04</internalNodes>
      <leafValues>
        -5.6198346614837646e-01 3.9469808340072632e-01</leafValues></_>
    <_>
      <internalNodes>
        0 -1 5380219 9.1322523076087236e-05</internalNodes>
      <leafValues>
        2.0100353658199310e-01 -5.9406197071075439e-01</leafValues></_>
    <_>
      <internalNodes>
        0 -1 110501 -2.5242507457733154e-01</internalNodes>
      <leafValues>
        5.6889760494232178e-01 -1.9024455547332764e-01</leafValues></_>
    <_>
      <internalNodes>
        0 -1 4122877 -6.9885249249637127e-03</internalNodes>
      <leafValues>
        4.4129130244255066e-01 -2.2511138021945953e-01</leafValues></_>
    <_>
      <internalNodes>
        0 -1 4797563 2.8072761371731758e-02</internalNodes>
      <leafValues>
        -1.6565299034118652e-01 6.7420303821563721e-01</leafValues></_>
    <_>
      <internalNodes>
        0 -1 4592725 -2.4432060308754444e-04</internalNodes>
      <leafValues>
        -6.5200394392013550e-01 1.6626904904842377e-01</leafValues></_>
    <_>
      <internalNodes>
        0 -1 4592725 1.4483870472759008e-04</internalNodes>
      <leafValues>
        1.1886968463659286e-01 -5.4418241977691650e-01</leafValues></_>
    <_>
      <internalNodes>
        0 -1 2838073 2.5296048261225224e-03</internalNodes>
      <leafValues>
        -1.8676410615444183e-01 3.6514544486999512e-01</leafValues></_>
    <_>
      <internalNodes>
        0 -1 2311403 -3.6032246425747871e-03</internalNodes>
      <leafValues>
        3.6309921741485596e-01 -2.0473021268844604e-01</leafValues></_>
    <_>
      <internalNodes>
        0 -1 6092277 1.1979921720921993e-02</internalNodes>
      <leafValues>
        1.3229888677597046e-01 -5.5605977773666382e-01</leafValues></_>
    <_>
      <internalNodes>
        0 -1 4822573 5.8233400341123343e-04</internalNodes>
      <leafValues>
        1.0505441576242447e-01 -5.9543645381927490e-01</leafValues></_>
    <_>
      <internalNodes>
        0 -1 5856541 1.6050741542130709e-03</internalNodes>
      <leafValues>
        -1.7172881960868835e-01 3.9779070019721985e-01</leafValues></_>
    <_>
      <internalNodes>
        0 -1 3172931 -4.9613811075687408e-02</internalNodes>
      <leafValues>
        5.9729701280593872e-01 -1.1370146274566650e-01</leafValues></_>
    <_>
      <internalNodes>
        0 -1 4585774 -5.7452169130556285e-05</internalNodes>
      <leafValues>
        -5.3434717655181885e-01 1.5422466397285461e-01</leafValues></_>
    <_>
      <internalNodes>
        0 -1 1036488 6.5765711478888988e-03</internalNodes>
      <leafValues>
        -1.4472690224647522e-01 5.1746481657028198e-01</leafValues></_>
    <_>
      <internalNodes>
        0 -1 7066582 2.0950332691427320e-04</internalNodes>
      <leafValues>
        -1.7647182941436768e-01 3.4437716007232666e-01</leafValues></_>
    <_>
      <internalNodes>
        0 -1 6776916 1.7792873084545135e-02</internalNodes>
      <leafValues>
        -1.2218815088272095e-01 5.5175024271011353e-01</leafValues></_>
    <_>
      <internalNodes>
        0 -1 2831281 7.3187672533094883e-03</internalNodes>
      <leafValues>
        -1.0913538932800293e-01 5.4688835144042969e-01</leafValues></_>
    <_>
      <internalNodes>
        0 -1 5187999 4.5134751417208463e-05</internalNodes>
      <leafValues>
        1.7506812512874603e-01 -3.8117703795433044e-01</leafValues></_>
    <_>
      <internalNodes>
        0 -1 7667775 -2.7674962766468525e-03</internalNodes>
      <leafValues>
        5.9066492319107056e-01 -1.1408955603837967e-01</leafValues></_>
    <_>
      <internalNodes>
        0 -1 5580955 3.0054769013077021e-04</internalNodes>
      <leafValues>
        1.1474425345659256e-01 -6.8899118900299072e-01</leafValues></_>
    <_>
      <internalNodes>
        0 -1 4122183 -1.0823721997439861e-02</internalNodes>
      <leafValues>
        3.6103916168212891e-01 -2.0789015293121338e-01</leafValues></_>
    <_>
      <internalNodes>
        0 -1 3819532 -4.5657213777303696e-02</internalNodes>
      <leafValues>
        8.1614971160888672e-01 -7.1627609431743622e-02</leafValues></_>
    <_>
      <internalNodes>
        0 -1 4540880 3.7866897881031036e-02</internalNodes>
      <leafValues>
        1.5241669118404388e-01 -4.9104699492454529e-01</leafValues></_>
    <_>
      <internalNodes>
        0 -1 4095305 -1.2168958783149719e-03</internalNodes>
      <leafValues>
        2.6450115442276001e-01 -2.5911030173301697e-01</leafValues></_>
    <_>
      <internalNodes>
        0 -1 5474580 2.2902397904545069e-04</internalNodes>
      <leafValues>
        1.2236245721578598e-01 -6.3657313585281372e-01</leafValues></_>
    <_>
      <internalNodes>
        0 -1 1655714 -5.7184130128007382e-05</internalNodes>
      <leafValues>
        3.5148575901985168e-01 -2.0420688390731812e-01</leafValues></_></weakClassifiers></stage5>
</opencv_storage>
