<?xml version="1.0"?>
<opencv_storage>
<stage6>
  <maxWeakCount>30</maxWeakCount>
  <stageThreshold>-1.0704510211944580e+00</stageThreshold>
  <weakClassifiers>
    <_>
      <internalNodes>
        0 -1 1413256 -4.4379336759448051e-03</internalNodes>
      <leafValues>
        5.0935095548629761e-01 -9.1172210872173309e-02</leafValues></_>
    <_>
      <internalNodes>
        0 -1 2721502 1.5434825327247381e-03</internalNodes>
      <leafValues>
        -1.3728599250316620e-01 4.4437575340270996e-01</leafValues></_>
    <_>
      <internalNodes>
        0 -1 5853721 -7.7871739631518722e-04</internalNodes>
      <leafValues>
        3.5550725460052490e-01 -1.7712721228599548e-01</leafValues></_>
    <_>
      <internalNodes>
        0 -1 7138217 7.0502597372978926e-04</internalNodes>
      <leafValues>
        -1.5698078274726868e-01 4.3863150477409363e-01</leafValues></_>
    <_>
      <internalNodes>
        0 -1 6657838 -4.6913330443203449e-03</internalNodes>
      <leafValues>
        3.5100889205932617e-01 -1.7105855047702789e-01</leafValues></_>
    <_>
      <internalNodes>
        0 -1 3725366 9.4522326253354549e-04</internalNodes>
      <leafValues>
        -9.5721416175365448e-02 6.2488216161727905e-01</leafValues></_>
    <_>
      <internalNodes>
        0 -1 2109629 6.5199472010135651e-02</internalNodes>
      <leafValues>
        1.1077830940485001e-01 -5.7861506938934326e-01</leafValues></_>
    <_>
      <internalNodes>
        0 -1 4709311 -2.5408703368157148e-04</internalNodes>
      <leafValues>
        -6.9890928268432617e-01 9.9950425326824188e-02</leafValues></_>
    <_>
      <internalNodes>
        0 -1 3665952 -3.9974667131900787e-02</internalNodes>
      <leafValues>
        -7.4557721614837646e-01 7.4339181184768677e-02</leafValues></_>
    <_>
      <internalNodes>
        0 -1 4646010 3.9280995726585388e-02</internalNodes>
      <leafValues>
        8.4857925772666931e-02 -6.3617503643035889e-01</leafValues></_>
    <_>
      <internalNodes>
        0 -1 6334426 -3.4291596966795623e-04</internalNodes>
      <leafValues>
        3.1771853566169739e-01 -1.8996724486351013e-01</leafValues></_>
    <_>
      <internalNodes>
        0 -1 2763878 9.8003773018717766e-05</internalNodes>
      <leafValues>
        -1.3724549114704132e-01 4.2192205786705017e-01</leafValues></_>
    <_>
      <internalNodes>
        0 -1 6918578 -7.8792320564389229e-03</internalNodes>
      <leafValues>
        8.7824821472167969e-01 -4.2762663215398788e-02</leafValues></_>
    <_>
      <internalNodes>
        0 -1 4822486 -6.2195329519454390e-05</internalNodes>
      <leafValues>
        -4.3093630671501160e-01 1.3560621440410614e-01</leafValues></_>
    <_>
      <internalNodes>
        0 -1 7603661 8.7559269741177559e-04</internalNodes>
      <leafValues>
        -1.6108293831348419e-01 4.1360878944396973e-01</leafValues></_>
    <_>
      <internalNodes>
        0 -1 5475496 2.5161072699120268e-05</internalNodes>
      <leafValues>
        1.9516938924789429e-01 -3.3429047465324402e-01</leafValues></_>
    <_>
      <internalNodes>
        0 -1 7345198 7.2382972575724125e-05</internalNodes>
      <leafValues>
        -1.9178986549377441e-01 3.0744990706443787e-01</leafValues></_>
    <_>
      <internalNodes>
        0 -1 2159273 5.5426044855266809e-04</internalNodes>
      <leafValues>
        -9.2946872115135193e-02 5.5815964937210083e-01</leafValues></_>
    <_>
      <internalNodes>
        0 -1 7413900 5.8779045939445496e-03</internalNodes>
      <leafValues>
        -1.0753625631332397e-01 5.0909215211868286e-01</leafValues></_>
    <_>
      <internalNodes>
        0 -1 371567 -1.0422235936857760e-04</internalNodes>
      <leafValues>
        3.9973524212837219e-01 -1.3490866124629974e-01</leafValues></_>
    <_>
      <internalNodes>
        0 -1 4716886 1.6482605133205652e-04</internalNodes>
      <leafValues>
        1.3196021318435669e-01 -4.8448514938354492e-01</leafValues></_>
    <_>
      <internalNodes>
        0 -1 3787215 -3.8805003277957439e-03</internalNodes>
      <leafValues>
        3.4855151176452637e-01 -1.9547311961650848e-01</leafValues></_>
    <_>
      <internalNodes>
        0 -1 7181899 -1.6432059928774834e-03</internalNodes>
      <leafValues>
        4.7840678691864014e-01 -1.1565339565277100e-01</leafValues></_>
    <_>
      <internalNodes>
        0 -1 7622384 -4.6817513066343963e-04</internalNodes>
      <leafValues>
        3.4153857827186584e-01 -1.7329102754592896e-01</leafValues></_>
    <_>
      <internalNodes>
        0 -1 4707075 2.1277317136991769e-04</internalNodes>
      <leafValues>
        8.4419257938861847e-02 -7.0588511228561401e-01</leafValues></_>
    <_>
      <internalNodes>
        0 -1 4645291 8.9120324701070786e-03</internalNodes>
      <leafValues>
        -1.1298386752605438e-01 5.4735988378524780e-01</leafValues></_>
    <_>
      <internalNodes>
        0 -1 768284 7.3749721050262451e-02</internalNodes>
      <leafValues>
        1.2678581476211548e-01 -4.8069125413894653e-01</leafValues></_>
    <_>
      <internalNodes>
        0 -1 7764203 -4.7839895705692470e-04</internalNodes>
      <leafValues>
        4.4156861305236816e-01 -1.3113085925579071e-01</leafValues></_>
    <_>
      <internalNodes>
        0 -1 5470132 -1.2705514382105321e-04</internalNodes>
      <leafValues>
        4.2711603641510010e-01 -1.2241262197494507e-01</leafValues></_>
    <_>
      <internalNodes>
        0 -1 3668614 1.7099016986321658e-04</internalNodes>
      <leafValues>
        1.5769323706626892e-01 -3.6033552885055542e-01</leafValues></_></weakClassifiers></stage6>
</opencv_storage>
