<?xml version="1.0"?>
<opencv_storage>
<stage10>
  <maxWeakCount>38</maxWeakCount>
  <stageThreshold>-9.0770596265792847e-01</stageThreshold>
  <weakClassifiers>
    <_>
      <internalNodes>
        0 -1 5539406 -1.0935722850263119e-02</internalNodes>
      <leafValues>
        4.1176471114158630e-01 -6.2271062284708023e-02</leafValues></_>
    <_>
      <internalNodes>
        0 -1 1700815 -6.1939074657857418e-03</internalNodes>
      <leafValues>
        2.2446911036968231e-01 -2.5921633839607239e-01</leafValues></_>
    <_>
      <internalNodes>
        0 -1 6395270 1.1761603673221543e-04</internalNodes>
      <leafValues>
        -7.9294532537460327e-02 5.7372367382049561e-01</leafValues></_>
    <_>
      <internalNodes>
        0 -1 270566 2.1681742370128632e-01</internalNodes>
      <leafValues>
        -1.2032448500394821e-01 6.5425258874893188e-01</leafValues></_>
    <_>
      <internalNodes>
        0 -1 3660479 2.3905344307422638e-02</internalNodes>
      <leafValues>
        9.7870118916034698e-02 -5.7645004987716675e-01</leafValues></_>
    <_>
      <internalNodes>
        0 -1 736643 -8.8268313556909561e-03</internalNodes>
      <leafValues>
        3.7148734927177429e-01 -1.2034719437360764e-01</leafValues></_>
    <_>
      <internalNodes>
        0 -1 5152194 -2.2372368257492781e-03</internalNodes>
      <leafValues>
        -6.7494362592697144e-01 7.3488041758537292e-02</leafValues></_>
    <_>
      <internalNodes>
        0 -1 3998272 -6.4722215756773949e-03</internalNodes>
      <leafValues>
        3.0953350663185120e-01 -1.3726513087749481e-01</leafValues></_>
    <_>
      <internalNodes>
        0 -1 5275401 4.5692453568335623e-05</internalNodes>
      <leafValues>
        1.1681324243545532e-01 -3.5296052694320679e-01</leafValues></_>
    <_>
      <internalNodes>
        0 -1 1242722 -1.3218613457866013e-04</internalNodes>
      <leafValues>
        4.1715008020401001e-01 -1.0548366606235504e-01</leafValues></_>
    <_>
      <internalNodes>
        0 -1 6761690 1.6175922006368637e-02</internalNodes>
      <leafValues>
        -1.3668504357337952e-01 3.1278511881828308e-01</leafValues></_>
    <_>
      <internalNodes>
        0 -1 154857 -3.0372367473319173e-04</internalNodes>
      <leafValues>
        4.0333619713783264e-01 -1.1381855607032776e-01</leafValues></_>
    <_>
      <internalNodes>
        0 -1 5593908 2.0773215219378471e-03</internalNodes>
      <leafValues>
        -7.4812673032283783e-02 5.2962523698806763e-01</leafValues></_>
    <_>
      <internalNodes>
        0 -1 4291831 1.7437640577554703e-02</internalNodes>
      <leafValues>
        6.1375107616186142e-02 -8.0170524120330811e-01</leafValues></_>
    <_>
      <internalNodes>
        0 -1 7363898 7.9694043961353600e-05</internalNodes>
      <leafValues>
        -1.0580072551965714e-01 4.7382587194442749e-01</leafValues></_>
    <_>
      <internalNodes>
        0 -1 5282687 2.0191912426525960e-06</internalNodes>
      <leafValues>
        -2.1624644100666046e-01 2.1901343762874603e-01</leafValues></_>
    <_>
      <internalNodes>
        0 -1 5584427 -1.7444303375668824e-04</internalNodes>
      <leafValues>
        -4.8596212267875671e-01 9.2783182859420776e-02</leafValues></_>
    <_>
      <internalNodes>
        0 -1 3925606 -1.0839058086276054e-04</internalNodes>
      <leafValues>
        -3.1116160750389099e-01 1.3441355526447296e-01</leafValues></_>
    <_>
      <internalNodes>
        0 -1 4079195 1.6021510236896574e-04</internalNodes>
      <leafValues>
        -1.4426432549953461e-01 3.2596117258071899e-01</leafValues></_>
    <_>
      <internalNodes>
        0 -1 4118019 5.7449429295957088e-03</internalNodes>
      <leafValues>
        -1.1483104526996613e-01 3.6117121577262878e-01</leafValues></_>
    <_>
      <internalNodes>
        0 -1 6828534 -3.4694960049819201e-05</internalNodes>
      <leafValues>
        -2.8862148523330688e-01 1.5297350287437439e-01</leafValues></_>
    <_>
      <internalNodes>
        0 -1 957019 -2.6053015608340502e-04</internalNodes>
      <leafValues>
        -3.1652313470840454e-01 1.3942824304103851e-01</leafValues></_>
    <_>
      <internalNodes>
        0 -1 7394426 -5.7909288443624973e-04</internalNodes>
      <leafValues>
        4.5583686232566833e-01 -9.9062941968441010e-02</leafValues></_>
    <_>
      <internalNodes>
        0 -1 1263835 -5.2213712478987873e-05</internalNodes>
      <leafValues>
        4.1471922397613525e-01 -1.1174908280372620e-01</leafValues></_>
    <_>
      <internalNodes>
        0 -1 5174561 4.3672416359186172e-04</internalNodes>
      <leafValues>
        -9.4400107860565186e-02 4.6038296818733215e-01</leafValues></_>
    <_>
      <internalNodes>
        0 -1 18386 -3.6824366543442011e-03</internalNodes>
      <leafValues>
        2.4433560669422150e-01 -1.8676044046878815e-01</leafValues></_>
    <_>
      <internalNodes>
        0 -1 4738594 -9.2462039901874959e-05</internalNodes>
      <leafValues>
        -3.4775805473327637e-01 1.3594903051853180e-01</leafValues></_>
    <_>
      <internalNodes>
        0 -1 5667995 8.3238439401611686e-04</internalNodes>
      <leafValues>
        -1.3367100059986115e-01 3.4593874216079712e-01</leafValues></_>
    <_>
      <internalNodes>
        0 -1 1148864 5.4010073654353619e-04</internalNodes>
      <leafValues>
        -6.6452950239181519e-02 6.0247308015823364e-01</leafValues></_>
    <_>
      <internalNodes>
        0 -1 5420870 -2.1656313037965447e-05</internalNodes>
      <leafValues>
        -2.8786286711692810e-01 1.5858538448810577e-01</leafValues></_>
    <_>
      <internalNodes>
        0 -1 4109254 -1.9008943345397711e-03</internalNodes>
      <leafValues>
        4.5314696431159973e-01 -9.9494107067584991e-02</leafValues></_>
    <_>
      <internalNodes>
        0 -1 3319840 -1.1432199971750379e-04</internalNodes>
      <leafValues>
        2.1726885437965393e-01 -2.2116167843341827e-01</leafValues></_>
    <_>
      <internalNodes>
        0 -1 6216236 -5.2707102149724960e-03</internalNodes>
      <leafValues>
        -5.7670754194259644e-01 8.2602128386497498e-02</leafValues></_>
    <_>
      <internalNodes>
        0 -1 7677966 2.3528224846813828e-04</internalNodes>
      <leafValues>
        -1.2358739227056503e-01 3.6709329485893250e-01</leafValues></_>
    <_>
      <internalNodes>
        0 -1 4831918 -9.5274168415926397e-05</internalNodes>
      <leafValues>
        -5.4852831363677979e-01 9.2966556549072266e-02</leafValues></_>
    <_>
      <internalNodes>
        0 -1 7046145 -1.8728932365775108e-02</internalNodes>
      <leafValues>
        6.0780328512191772e-01 -8.3689205348491669e-02</leafValues></_>
    <_>
      <internalNodes>
        0 -1 3776020 -1.6390301752835512e-03</internalNodes>
      <leafValues>
        4.8878243565559387e-01 -8.2988120615482330e-02</leafValues></_>
    <_>
      <internalNodes>
        0 -1 4711433 5.3315379773266613e-05</internalNodes>
      <leafValues>
        9.8103381693363190e-02 -4.6959140896797180e-01</leafValues></_></weakClassifiers></stage10>
</opencv_storage>
