<?xml version="1.0"?>
<opencv_storage>
<stage13>
  <maxWeakCount>43</maxWeakCount>
  <stageThreshold>-8.9237195253372192e-01</stageThreshold>
  <weakClassifiers>
    <_>
      <internalNodes>
        0 -1 5489471 -2.2471906504506478e-06</internalNodes>
      <leafValues>
        4.1618496179580688e-01 -5.6939501315355301e-02</leafValues></_>
    <_>
      <internalNodes>
        0 -1 2435050 -6.5472004935145378e-03</internalNodes>
      <leafValues>
        2.2278338670730591e-01 -2.0135106146335602e-01</leafValues></_>
    <_>
      <internalNodes>
        0 -1 4296117 6.4571056282147765e-04</internalNodes>
      <leafValues>
        -1.2086002528667450e-01 3.2652428746223450e-01</leafValues></_>
    <_>
      <internalNodes>
        0 -1 4314600 6.3039585947990417e-03</internalNodes>
      <leafValues>
        3.7470918148756027e-02 -6.1659419536590576e-01</leafValues></_>
    <_>
      <internalNodes>
        0 -1 5072818 -1.3267226750031114e-03</internalNodes>
      <leafValues>
        3.3478960394859314e-01 -1.3171698153018951e-01</leafValues></_>
    <_>
      <internalNodes>
        0 -1 5091316 -3.7953562568873167e-03</internalNodes>
      <leafValues>
        3.6274993419647217e-01 -9.8763026297092438e-02</leafValues></_>
    <_>
      <internalNodes>
        0 -1 3009607 1.2681351508945227e-03</internalNodes>
      <leafValues>
        -1.2808731198310852e-01 4.0098956227302551e-01</leafValues></_>
    <_>
      <internalNodes>
        0 -1 5584387 -5.7373763411305845e-05</internalNodes>
      <leafValues>
        -4.1637936234474182e-01 1.0173133015632629e-01</leafValues></_>
    <_>
      <internalNodes>
        0 -1 5163331 -5.4749293485656381e-04</internalNodes>
      <leafValues>
        2.8007942438125610e-01 -1.4743815362453461e-01</leafValues></_>
    <_>
      <internalNodes>
        0 -1 3951869 -6.2778725987300277e-04</internalNodes>
      <leafValues>
        1.7215052247047424e-01 -2.4526248872280121e-01</leafValues></_>
    <_>
      <internalNodes>
        0 -1 5019788 6.4918068237602711e-03</internalNodes>
      <leafValues>
        1.5673021972179413e-01 -3.0269005894660950e-01</leafValues></_>
    <_>
      <internalNodes>
        0 -1 3843681 -9.9726486951112747e-03</internalNodes>
      <leafValues>
        2.6093938946723938e-01 -1.6842465102672577e-01</leafValues></_>
    <_>
      <internalNodes>
        0 -1 5945434 -2.8781299479305744e-03</internalNodes>
      <leafValues>
        4.0691953897476196e-01 -1.0687216371297836e-01</leafValues></_>
    <_>
      <internalNodes>
        0 -1 5255119 -1.9851092249155045e-02</internalNodes>
      <leafValues>
        -5.9561717510223389e-01 7.8276857733726501e-02</leafValues></_>
    <_>
      <internalNodes>
        0 -1 3462954 -4.3062405893579125e-05</internalNodes>
      <leafValues>
        2.5026127696037292e-01 -1.5213418006896973e-01</leafValues></_>
    <_>
      <internalNodes>
        0 -1 3421121 -4.4332329707685858e-05</internalNodes>
      <leafValues>
        -3.2439085841178894e-01 1.2146116793155670e-01</leafValues></_>
    <_>
      <internalNodes>
        0 -1 5652882 2.2909648250788450e-03</internalNodes>
      <leafValues>
        -8.0783046782016754e-02 4.8470744490623474e-01</leafValues></_>
    <_>
      <internalNodes>
        0 -1 4827112 -5.5718380026519299e-03</internalNodes>
      <leafValues>
        -6.7257487773895264e-01 6.0338120907545090e-02</leafValues></_>
    <_>
      <internalNodes>
        0 -1 4691514 5.8947918005287647e-03</internalNodes>
      <leafValues>
        -7.9979851841926575e-02 6.1377942562103271e-01</leafValues></_>
    <_>
      <internalNodes>
        0 -1 3432207 -2.6909706648439169e-03</internalNodes>
      <leafValues>
        6.5931689739227295e-01 -5.4895974695682526e-02</leafValues></_>
    <_>
      <internalNodes>
        0 -1 5859069 -1.0080655338242650e-03</internalNodes>
      <leafValues>
        6.5383493900299072e-01 -5.2084986120462418e-02</leafValues></_>
    <_>
      <internalNodes>
        0 -1 6722550 -3.3943084417842329e-05</internalNodes>
      <leafValues>
        -2.4925352632999420e-01 1.7595531046390533e-01</leafValues></_>
    <_>
      <internalNodes>
        0 -1 682793 5.7862373068928719e-04</internalNodes>
      <leafValues>
        -7.4348419904708862e-02 6.0559314489364624e-01</leafValues></_>
    <_>
      <internalNodes>
        0 -1 7550559 4.2975926771759987e-03</internalNodes>
      <leafValues>
        -9.5173768699169159e-02 4.2892068624496460e-01</leafValues></_>
    <_>
      <internalNodes>
        0 -1 5389782 -3.3900032576639205e-05</internalNodes>
      <leafValues>
        -2.8585016727447510e-01 1.5956488251686096e-01</leafValues></_>
    <_>
      <internalNodes>
        0 -1 798757 3.3593691885471344e-02</internalNodes>
      <leafValues>
        -6.3304729759693146e-02 7.2319126129150391e-01</leafValues></_>
    <_>
      <internalNodes>
        0 -1 6866083 2.1650434064213187e-04</internalNodes>
      <leafValues>
        -1.0230971872806549e-01 3.6940267682075500e-01</leafValues></_>
    <_>
      <internalNodes>
        0 -1 5011292 -1.2408811599016190e-03</internalNodes>
      <leafValues>
        -7.4980354309082031e-01 6.1199933290481567e-02</leafValues></_>
    <_>
      <internalNodes>
        0 -1 7059543 2.0938643720000982e-03</internalNodes>
      <leafValues>
        -8.1252522766590118e-02 5.7633477449417114e-01</leafValues></_>
    <_>
      <internalNodes>
        0 -1 6831689 -1.2082161847501993e-03</internalNodes>
      <leafValues>
        3.6139920353889465e-01 -1.0934614390134811e-01</leafValues></_>
    <_>
      <internalNodes>
        0 -1 7763264 -4.8817084461916238e-05</internalNodes>
      <leafValues>
        3.5039308667182922e-01 -1.1791795492172241e-01</leafValues></_>
    <_>
      <internalNodes>
        0 -1 4917155 -8.6414907127618790e-04</internalNodes>
      <leafValues>
        -6.6353356838226318e-01 7.1819536387920380e-02</leafValues></_>
    <_>
      <internalNodes>
        0 -1 7521381 -2.5746167011675425e-05</internalNodes>
      <leafValues>
        2.6868048310279846e-01 -1.7199896275997162e-01</leafValues></_>
    <_>
      <internalNodes>
        0 -1 6767079 1.4711412950418890e-04</internalNodes>
      <leafValues>
        -1.5684275329113007e-01 2.8298068046569824e-01</leafValues></_>
    <_>
      <internalNodes>
        0 -1 2806917 2.3468732833862305e-03</internalNodes>
      <leafValues>
        1.0744683444499969e-01 -4.6541848778724670e-01</leafValues></_>
    <_>
      <internalNodes>
        0 -1 3780225 -1.6299854905810207e-05</internalNodes>
      <leafValues>
        -2.8870260715484619e-01 1.4563228189945221e-01</leafValues></_>
    <_>
      <internalNodes>
        0 -1 3395517 -5.3194432985037565e-04</internalNodes>
      <leafValues>
        1.7353416979312897e-01 -2.6799163222312927e-01</leafValues></_>
    <_>
      <internalNodes>
        0 -1 2576686 1.4442575629800558e-03</internalNodes>
      <leafValues>
        -8.3678551018238068e-02 5.3641301393508911e-01</leafValues></_>
    <_>
      <internalNodes>
        0 -1 1572244 -1.0050978744402528e-04</internalNodes>
      <leafValues>
        2.9725894331932068e-01 -1.3788019120693207e-01</leafValues></_>
    <_>
      <internalNodes>
        0 -1 1869451 -1.0681199637474492e-04</internalNodes>
      <leafValues>
        2.3612809181213379e-01 -1.7017474770545959e-01</leafValues></_>
    <_>
      <internalNodes>
        0 -1 1905961 -1.8299348652362823e-02</internalNodes>
      <leafValues>
        3.3881929516792297e-01 -1.2321557849645615e-01</leafValues></_>
    <_>
      <internalNodes>
        0 -1 5140459 1.8194365839008242e-04</internalNodes>
      <leafValues>
        -2.1871244907379150e-01 1.9755710661411285e-01</leafValues></_>
    <_>
      <internalNodes>
        0 -1 3964205 4.7660089330747724e-04</internalNodes>
      <leafValues>
        7.8728005290031433e-02 -5.8416861295700073e-01</leafValues></_></weakClassifiers></stage13>
</opencv_storage>
