<?xml version="1.0"?>
<opencv_storage>
<stage16>
  <maxWeakCount>45</maxWeakCount>
  <stageThreshold>-9.8965919017791748e-01</stageThreshold>
  <weakClassifiers>
    <_>
      <internalNodes>
        0 -1 5255037 3.0240709893405437e-03</internalNodes>
      <leafValues>
        -7.2358897887170315e-03 4.4554454088211060e-01</leafValues></_>
    <_>
      <internalNodes>
        0 -1 4475042 -1.8404511502012610e-04</internalNodes>
      <leafValues>
        -5.4441463947296143e-01 1.0985060781240463e-01</leafValues></_>
    <_>
      <internalNodes>
        0 -1 5293280 9.7002955153584480e-03</internalNodes>
      <leafValues>
        -2.7115929126739502e-01 1.8290081620216370e-01</leafValues></_>
    <_>
      <internalNodes>
        0 -1 4111008 8.3405915647745132e-03</internalNodes>
      <leafValues>
        -5.4406054317951202e-02 7.6415580511093140e-01</leafValues></_>
    <_>
      <internalNodes>
        0 -1 6148218 3.4011555835604668e-03</internalNodes>
      <leafValues>
        6.5638393163681030e-02 -5.6880688667297363e-01</leafValues></_>
    <_>
      <internalNodes>
        0 -1 5549358 8.4453243762254715e-03</internalNodes>
      <leafValues>
        -1.2084542959928513e-01 3.5880312323570251e-01</leafValues></_>
    <_>
      <internalNodes>
        0 -1 6837028 1.6447925008833408e-04</internalNodes>
      <leafValues>
        1.4229480922222137e-01 -3.0696269869804382e-01</leafValues></_>
    <_>
      <internalNodes>
        0 -1 157626 -3.4362645237706602e-04</internalNodes>
      <leafValues>
        6.8463897705078125e-01 -1.0905136168003082e-01</leafValues></_>
    <_>
      <internalNodes>
        0 -1 6990954 -2.5018104352056980e-03</internalNodes>
      <leafValues>
        3.9862698316574097e-01 -1.1380475759506226e-01</leafValues></_>
    <_>
      <internalNodes>
        0 -1 6869449 7.2290713433176279e-04</internalNodes>
      <leafValues>
        -1.4588907361030579e-01 3.3503094315528870e-01</leafValues></_>
    <_>
      <internalNodes>
        0 -1 5780273 1.7127080354839563e-04</internalNodes>
      <leafValues>
        -1.4978070557117462e-01 3.0641967058181763e-01</leafValues></_>
    <_>
      <internalNodes>
        0 -1 5264517 -3.2805665978230536e-04</internalNodes>
      <leafValues>
        -6.1331051588058472e-01 7.3700599372386932e-02</leafValues></_>
    <_>
      <internalNodes>
        0 -1 5732859 -2.6520516257733107e-04</internalNodes>
      <leafValues>
        2.3857599496841431e-01 -1.7265255749225616e-01</leafValues></_>
    <_>
      <internalNodes>
        0 -1 5783909 3.9195599965751171e-03</internalNodes>
      <leafValues>
        -2.0050324499607086e-01 2.1335516870021820e-01</leafValues></_>
    <_>
      <internalNodes>
        0 -1 7443982 6.3455296913161874e-04</internalNodes>
      <leafValues>
        -1.6028729081153870e-01 2.7358132600784302e-01</leafValues></_>
    <_>
      <internalNodes>
        0 -1 3543850 -1.7770973499864340e-05</internalNodes>
      <leafValues>
        -2.7808865904808044e-01 1.5999822318553925e-01</leafValues></_>
    <_>
      <internalNodes>
        0 -1 2893616 -2.9433774761855602e-04</internalNodes>
      <leafValues>
        3.5656836628913879e-01 -1.2273626029491425e-01</leafValues></_>
    <_>
      <internalNodes>
        0 -1 1399552 -3.7417337298393250e-03</internalNodes>
      <leafValues>
        4.9555861949920654e-01 -8.0000646412372589e-02</leafValues></_>
    <_>
      <internalNodes>
        0 -1 3056303 -1.8141333013772964e-02</internalNodes>
      <leafValues>
        3.1144043803215027e-01 -1.4021962881088257e-01</leafValues></_>
    <_>
      <internalNodes>
        0 -1 1878711 3.6505720345303416e-04</internalNodes>
      <leafValues>
        -1.4360927045345306e-01 3.2220664620399475e-01</leafValues></_>
    <_>
      <internalNodes>
        0 -1 2218300 -1.0472029447555542e-02</internalNodes>
      <leafValues>
        4.0302652120590210e-01 -1.1126504838466644e-01</leafValues></_>
    <_>
      <internalNodes>
        0 -1 4180352 -5.7450801250524819e-05</internalNodes>
      <leafValues>
        -2.7014368772506714e-01 1.6642601788043976e-01</leafValues></_>
    <_>
      <internalNodes>
        0 -1 7727572 -9.7704830113798380e-04</internalNodes>
      <leafValues>
        4.4038626551628113e-01 -9.5159977674484253e-02</leafValues></_>
    <_>
      <internalNodes>
        0 -1 5372120 -3.6916352109983563e-04</internalNodes>
      <leafValues>
        2.3952396214008331e-01 -1.8018653988838196e-01</leafValues></_>
    <_>
      <internalNodes>
        0 -1 5770796 -7.6966316555626690e-05</internalNodes>
      <leafValues>
        2.8186258673667908e-01 -1.5856425464153290e-01</leafValues></_>
    <_>
      <internalNodes>
        0 -1 3576750 1.6298778355121613e-03</internalNodes>
      <leafValues>
        -1.5760035812854767e-01 3.1073790788650513e-01</leafValues></_>
    <_>
      <internalNodes>
        0 -1 5377101 -1.4196827542036772e-03</internalNodes>
      <leafValues>
        -4.2898619174957275e-01 1.0801900923252106e-01</leafValues></_>
    <_>
      <internalNodes>
        0 -1 4117246 -3.0090632208157331e-05</internalNodes>
      <leafValues>
        2.3199987411499023e-01 -2.0109349489212036e-01</leafValues></_>
    <_>
      <internalNodes>
        0 -1 6000598 -2.5315901439171284e-05</internalNodes>
      <leafValues>
        -2.9176047444343567e-01 1.4714276790618896e-01</leafValues></_>
    <_>
      <internalNodes>
        0 -1 2580759 1.1635662522166967e-03</internalNodes>
      <leafValues>
        -1.1662106215953827e-01 3.8640925288200378e-01</leafValues></_>
    <_>
      <internalNodes>
        0 -1 2025886 1.2426013126969337e-03</internalNodes>
      <leafValues>
        8.8750921189785004e-02 -4.9265244603157043e-01</leafValues></_>
    <_>
      <internalNodes>
        0 -1 619928 -7.8413849696516991e-03</internalNodes>
      <leafValues>
        -4.6509161591529846e-01 9.2390231788158417e-02</leafValues></_>
    <_>
      <internalNodes>
        0 -1 5772783 -1.9990983419120312e-03</internalNodes>
      <leafValues>
        -6.7515981197357178e-01 5.3677488118410110e-02</leafValues></_>
    <_>
      <internalNodes>
        0 -1 6713097 2.7441003476269543e-04</internalNodes>
      <leafValues>
        -1.8013167381286621e-01 2.6021024584770203e-01</leafValues></_>
    <_>
      <internalNodes>
        0 -1 6795878 -5.5884687753859907e-05</internalNodes>
      <leafValues>
        -2.5075599551200867e-01 1.8287776410579681e-01</leafValues></_>
    <_>
      <internalNodes>
        0 -1 172693 1.4622694812715054e-02</internalNodes>
      <leafValues>
        -1.3606911897659302e-01 3.4302642941474915e-01</leafValues></_>
    <_>
      <internalNodes>
        0 -1 448885 -9.8913791589438915e-04</internalNodes>
      <leafValues>
        2.3492951691150665e-01 -1.7348669469356537e-01</leafValues></_>
    <_>
      <internalNodes>
        0 -1 5401224 -1.0257091162202414e-05</internalNodes>
      <leafValues>
        -2.2807128727436066e-01 1.8962551653385162e-01</leafValues></_>
    <_>
      <internalNodes>
        0 -1 7187200 1.1612751404754817e-04</internalNodes>
      <leafValues>
        -1.6949117183685303e-01 2.6704314351081848e-01</leafValues></_>
    <_>
      <internalNodes>
        0 -1 5884791 -2.6023128157248721e-05</internalNodes>
      <leafValues>
        -3.1986141204833984e-01 1.3996061682701111e-01</leafValues></_>
    <_>
      <internalNodes>
        0 -1 2321781 1.5381395351141691e-03</internalNodes>
      <leafValues>
        1.0217207670211792e-01 -4.1247683763504028e-01</leafValues></_>
    <_>
      <internalNodes>
        0 -1 3009582 -1.7955212388187647e-04</internalNodes>
      <leafValues>
        2.9905068874359131e-01 -1.4604900777339935e-01</leafValues></_>
    <_>
      <internalNodes>
        0 -1 6705425 -8.5973311215639114e-03</internalNodes>
      <leafValues>
        6.3439494371414185e-01 -6.3779637217521667e-02</leafValues></_>
    <_>
      <internalNodes>
        0 -1 6683599 -5.4227383807301521e-03</internalNodes>
      <leafValues>
        3.4401565790176392e-01 -1.2375228852033615e-01</leafValues></_>
    <_>
      <internalNodes>
        0 -1 6579274 -1.0595070198178291e-02</internalNodes>
      <leafValues>
        4.0870550274848938e-01 -1.2327434122562408e-01</leafValues></_></weakClassifiers></stage16>
</opencv_storage>
