<?xml version="1.0"?>
<opencv_storage>
<stage18>
  <maxWeakCount>47</maxWeakCount>
  <stageThreshold>-8.6849594116210938e-01</stageThreshold>
  <weakClassifiers>
    <_>
      <internalNodes>
        0 -1 6171749 -1.7899440135806799e-03</internalNodes>
      <leafValues>
        5.5642020702362061e-01 1.0497237741947174e-01</leafValues></_>
    <_>
      <internalNodes>
        0 -1 7752013 3.5904507967643440e-04</internalNodes>
      <leafValues>
        -4.3666876852512360e-02 6.5272641181945801e-01</leafValues></_>
    <_>
      <internalNodes>
        0 -1 506572 -1.9085665047168732e-01</internalNodes>
      <leafValues>
        2.9493883252143860e-01 -1.5810699760913849e-01</leafValues></_>
    <_>
      <internalNodes>
        0 -1 5062874 9.6682243747636676e-04</internalNodes>
      <leafValues>
        -2.9889820143580437e-02 6.8562585115432739e-01</leafValues></_>
    <_>
      <internalNodes>
        0 -1 5544943 -4.7932664165273309e-04</internalNodes>
      <leafValues>
        2.9065564274787903e-01 -1.3021908700466156e-01</leafValues></_>
    <_>
      <internalNodes>
        0 -1 5227556 1.0188589803874493e-03</internalNodes>
      <leafValues>
        -1.7184874415397644e-01 2.7802461385726929e-01</leafValues></_>
    <_>
      <internalNodes>
        0 -1 5227090 -3.6802902468480170e-04</internalNodes>
      <leafValues>
        2.5451606512069702e-01 -1.3873994350433350e-01</leafValues></_>
    <_>
      <internalNodes>
        0 -1 6566811 3.6412960616871715e-04</internalNodes>
      <leafValues>
        -1.0610333085060120e-01 3.6415314674377441e-01</leafValues></_>
    <_>
      <internalNodes>
        0 -1 7163003 -1.1555361561477184e-03</internalNodes>
      <leafValues>
        3.0531802773475647e-01 -1.2783707678318024e-01</leafValues></_>
    <_>
      <internalNodes>
        0 -1 4062885 -5.5058691941667348e-05</internalNodes>
      <leafValues>
        -2.5070774555206299e-01 1.5433602035045624e-01</leafValues></_>
    <_>
      <internalNodes>
        0 -1 6569312 -2.6143447030335665e-05</internalNodes>
      <leafValues>
        -3.0223751068115234e-01 1.2785254418849945e-01</leafValues></_>
    <_>
      <internalNodes>
        0 -1 5176448 -7.7372620580717921e-05</internalNodes>
      <leafValues>
        3.7362965941429138e-01 -1.0236193239688873e-01</leafValues></_>
    <_>
      <internalNodes>
        0 -1 368239 8.0926138907670975e-03</internalNodes>
      <leafValues>
        -1.1816376447677612e-01 2.9998415708541870e-01</leafValues></_>
    <_>
      <internalNodes>
        0 -1 4596452 1.2387186870910227e-05</internalNodes>
      <leafValues>
        1.5398429334163666e-01 -2.7732098102569580e-01</leafValues></_>
    <_>
      <internalNodes>
        0 -1 3587405 1.1438514338806272e-03</internalNodes>
      <leafValues>
        -8.1243224442005157e-02 5.8613789081573486e-01</leafValues></_>
    <_>
      <internalNodes>
        0 -1 7083657 -1.1969101615250111e-03</internalNodes>
      <leafValues>
        3.5677567124366760e-01 -1.0574755072593689e-01</leafValues></_>
    <_>
      <internalNodes>
        0 -1 3614950 4.5433402061462402e-02</internalNodes>
      <leafValues>
        6.6152714192867279e-02 -6.5146112442016602e-01</leafValues></_>
    <_>
      <internalNodes>
        0 -1 7364454 1.4290702529251575e-04</internalNodes>
      <leafValues>
        -1.3960467278957367e-01 2.7193921804428101e-01</leafValues></_>
    <_>
      <internalNodes>
        0 -1 1239738 -9.4150315271690488e-04</internalNodes>
      <leafValues>
        3.2114845514297485e-01 -1.1211127042770386e-01</leafValues></_>
    <_>
      <internalNodes>
        0 -1 5605806 6.4374366957054008e-06</internalNodes>
      <leafValues>
        1.7527858912944794e-01 -2.3307950794696808e-01</leafValues></_>
    <_>
      <internalNodes>
        0 -1 6650731 -2.6055178750539199e-05</internalNodes>
      <leafValues>
        -3.1389954686164856e-01 1.1012508720159531e-01</leafValues></_>
    <_>
      <internalNodes>
        0 -1 5872578 -1.5956751303747296e-04</internalNodes>
      <leafValues>
        1.8583774566650391e-01 -2.1327038109302521e-01</leafValues></_>
    <_>
      <internalNodes>
        0 -1 7109743 3.2581002451479435e-03</internalNodes>
      <leafValues>
        1.2385971099138260e-01 -3.0783933401107788e-01</leafValues></_>
    <_>
      <internalNodes>
        0 -1 4604444 -4.7343198093585670e-04</internalNodes>
      <leafValues>
        5.6973910331726074e-01 -7.2343364357948303e-02</leafValues></_>
    <_>
      <internalNodes>
        0 -1 7723540 -1.0430931579321623e-03</internalNodes>
      <leafValues>
        3.6829483509063721e-01 -9.8167173564434052e-02</leafValues></_>
    <_>
      <internalNodes>
        0 -1 6434363 -2.6398693080409430e-05</internalNodes>
      <leafValues>
        -3.2564225792884827e-01 1.1845730245113373e-01</leafValues></_>
    <_>
      <internalNodes>
        0 -1 3673253 7.8003904491197318e-05</internalNodes>
      <leafValues>
        1.1101356893777847e-01 -3.5423460602760315e-01</leafValues></_>
    <_>
      <internalNodes>
        0 -1 5765814 2.2204060223884881e-04</internalNodes>
      <leafValues>
        -1.1209418624639511e-01 3.5654062032699585e-01</leafValues></_>
    <_>
      <internalNodes>
        0 -1 4833513 2.7559086447581649e-04</internalNodes>
      <leafValues>
        -8.0925732851028442e-02 4.3788522481918335e-01</leafValues></_>
    <_>
      <internalNodes>
        0 -1 3472015 -2.5426023639738560e-03</internalNodes>
      <leafValues>
        3.8463142514228821e-01 -9.8224557936191559e-02</leafValues></_>
    <_>
      <internalNodes>
        0 -1 4263507 4.2520026909187436e-04</internalNodes>
      <leafValues>
        -1.7988319694995880e-01 2.2267019748687744e-01</leafValues></_>
    <_>
      <internalNodes>
        0 -1 6574107 -5.2315281936898828e-04</internalNodes>
      <leafValues>
        5.1116472482681274e-01 -7.3341511189937592e-02</leafValues></_>
    <_>
      <internalNodes>
        0 -1 5978540 2.6516536308918148e-05</internalNodes>
      <leafValues>
        1.2275163829326630e-01 -3.4647488594055176e-01</leafValues></_>
    <_>
      <internalNodes>
        0 -1 6249109 -3.5163748543709517e-04</internalNodes>
      <leafValues>
        4.1034999489784241e-01 -1.0020697861909866e-01</leafValues></_>
    <_>
      <internalNodes>
        0 -1 5168072 1.5790118777658790e-04</internalNodes>
      <leafValues>
        -2.1483939886093140e-01 1.9738319516181946e-01</leafValues></_>
    <_>
      <internalNodes>
        0 -1 4720192 -4.1156797669827938e-04</internalNodes>
      <leafValues>
        3.4893125295639038e-01 -1.2172584980726242e-01</leafValues></_>
    <_>
      <internalNodes>
        0 -1 7714422 8.4917061030864716e-04</internalNodes>
      <leafValues>
        -9.2418149113655090e-02 4.3751344084739685e-01</leafValues></_>
    <_>
      <internalNodes>
        0 -1 6850701 2.3755675647407770e-04</internalNodes>
      <leafValues>
        1.4000588655471802e-01 -3.2963690161705017e-01</leafValues></_>
    <_>
      <internalNodes>
        0 -1 6713733 7.5844386592507362e-03</internalNodes>
      <leafValues>
        -6.5442681312561035e-02 6.5665066242218018e-01</leafValues></_>
    <_>
      <internalNodes>
        0 -1 4578631 -7.8626498579978943e-03</internalNodes>
      <leafValues>
        -4.1803830862045288e-01 1.0793701559305191e-01</leafValues></_>
    <_>
      <internalNodes>
        0 -1 5172128 5.1603494212031364e-03</internalNodes>
      <leafValues>
        -7.5542777776718140e-02 5.9001457691192627e-01</leafValues></_>
    <_>
      <internalNodes>
        0 -1 6649924 8.9052155090030283e-05</internalNodes>
      <leafValues>
        9.7090400755405426e-02 -4.8371180891990662e-01</leafValues></_>
    <_>
      <internalNodes>
        0 -1 1177353 -1.7692402005195618e-02</internalNodes>
      <leafValues>
        4.6890825033187866e-01 -1.0201827436685562e-01</leafValues></_>
    <_>
      <internalNodes>
        0 -1 2906608 -2.8502673376351595e-04</internalNodes>
      <leafValues>
        3.2792028784751892e-01 -1.2032921612262726e-01</leafValues></_>
    <_>
      <internalNodes>
        0 -1 7685575 2.4839560501277447e-04</internalNodes>
      <leafValues>
        -1.1819051206111908e-01 3.6601853370666504e-01</leafValues></_>
    <_>
      <internalNodes>
        0 -1 6705528 -3.8714095717296004e-04</internalNodes>
      <leafValues>
        2.9525417089462280e-01 -1.4594933390617371e-01</leafValues></_>
    <_>
      <internalNodes>
        0 -1 3552234 -1.6226433217525482e-05</internalNodes>
      <leafValues>
        -2.5612351298332214e-01 1.6681633889675140e-01</leafValues></_></weakClassifiers></stage18>
</opencv_storage>
