<?xml version="1.0"?>
<opencv_storage>
<stage4>
  <maxWeakCount>24</maxWeakCount>
  <stageThreshold>-9.7843849658966064e-01</stageThreshold>
  <weakClassifiers>
    <_>
      <internalNodes>
        0 -1 1390957 -1.8814504146575928e-01</internalNodes>
      <leafValues>
        6.0232222080230713e-01 -1.6465421766042709e-02</leafValues></_>
    <_>
      <internalNodes>
        0 -1 4083267 -1.0428179055452347e-02</internalNodes>
      <leafValues>
        -6.1205106973648071e-01 2.0000666379928589e-01</leafValues></_>
    <_>
      <internalNodes>
        0 -1 2721659 -2.8455723077058792e-03</internalNodes>
      <leafValues>
        4.6198952198028564e-01 -1.7113879323005676e-01</leafValues></_>
    <_>
      <internalNodes>
        0 -1 2025840 1.1199019354535267e-04</internalNodes>
      <leafValues>
        -1.3994309306144714e-01 5.1407182216644287e-01</leafValues></_>
    <_>
      <internalNodes>
        0 -1 5087081 -6.6959634423255920e-03</internalNodes>
      <leafValues>
        4.8812597990036011e-01 -1.6939221322536469e-01</leafValues></_>
    <_>
      <internalNodes>
        0 -1 5075951 -5.6311241351068020e-03</internalNodes>
      <leafValues>
        4.6678906679153442e-01 -1.3358832895755768e-01</leafValues></_>
    <_>
      <internalNodes>
        0 -1 3730417 2.2160209482535720e-04</internalNodes>
      <leafValues>
        -1.5549023449420929e-01 5.1432961225509644e-01</leafValues></_>
    <_>
      <internalNodes>
        0 -1 4938718 -2.5264051510021091e-04</internalNodes>
      <leafValues>
        -6.5675216913223267e-01 1.2858112156391144e-01</leafValues></_>
    <_>
      <internalNodes>
        0 -1 3587136 2.3644657630939037e-04</internalNodes>
      <leafValues>
        -1.2813825905323029e-01 7.3703634738922119e-01</leafValues></_>
    <_>
      <internalNodes>
        0 -1 6642352 3.3741160295903683e-03</internalNodes>
      <leafValues>
        -1.7819093167781830e-01 3.6883029341697693e-01</leafValues></_>
    <_>
      <internalNodes>
        0 -1 6727980 1.2459991557989269e-04</internalNodes>
      <leafValues>
        -1.5081055462360382e-01 5.8280980587005615e-01</leafValues></_>
    <_>
      <internalNodes>
        0 -1 7719949 -4.3137936154380441e-04</internalNodes>
      <leafValues>
        4.8391160368919373e-01 -1.2247795611619949e-01</leafValues></_>
    <_>
      <internalNodes>
        0 -1 4326350 1.2125303968787193e-02</internalNodes>
      <leafValues>
        9.2724703252315521e-02 -7.7033179998397827e-01</leafValues></_>
    <_>
      <internalNodes>
        0 -1 4190300 -1.2756042182445526e-02</internalNodes>
      <leafValues>
        -6.9734823703765869e-01 1.0586795955896378e-01</leafValues></_>
    <_>
      <internalNodes>
        0 -1 154863 -2.8606425621546805e-04</internalNodes>
      <leafValues>
        4.5218214392662048e-01 -1.7300967872142792e-01</leafValues></_>
    <_>
      <internalNodes>
        0 -1 2740164 -1.0459923651069403e-03</internalNodes>
      <leafValues>
        2.6013568043708801e-01 -2.6501068472862244e-01</leafValues></_>
    <_>
      <internalNodes>
        0 -1 3506529 8.7968021631240845e-02</internalNodes>
      <leafValues>
        6.1371024698019028e-02 -8.7851959466934204e-01</leafValues></_>
    <_>
      <internalNodes>
        0 -1 4391603 -5.7764211669564247e-03</internalNodes>
      <leafValues>
        -5.9136790037155151e-01 1.0984972119331360e-01</leafValues></_>
    <_>
      <internalNodes>
        0 -1 3811024 -4.0706298314034939e-03</internalNodes>
      <leafValues>
        2.2417917847633362e-01 -3.3338817954063416e-01</leafValues></_>
    <_>
      <internalNodes>
        0 -1 125359 -3.9601579192094505e-04</internalNodes>
      <leafValues>
        4.5443573594093323e-01 -1.6108676791191101e-01</leafValues></_>
    <_>
      <internalNodes>
        0 -1 6288040 -3.7156702019274235e-03</internalNodes>
      <leafValues>
        4.0116256475448608e-01 -1.4679166674613953e-01</leafValues></_>
    <_>
      <internalNodes>
        0 -1 6808302 -4.2682671919465065e-03</internalNodes>
      <leafValues>
        5.2335953712463379e-01 -1.3613826036453247e-01</leafValues></_>
    <_>
      <internalNodes>
        0 -1 5480479 -3.2951991306617856e-04</internalNodes>
      <leafValues>
        -5.2950829267501831e-01 1.3162636756896973e-01</leafValues></_>
    <_>
      <internalNodes>
        0 -1 319634 7.5052244937978685e-05</internalNodes>
      <leafValues>
        -1.5592236816883087e-01 4.9558052420616150e-01</leafValues></_></weakClassifiers></stage4>
</opencv_storage>
