<?xml version="1.0"?>
<opencv_storage>
<stage11>
  <maxWeakCount>38</maxWeakCount>
  <stageThreshold>-9.0774279832839966e-01</stageThreshold>
  <weakClassifiers>
    <_>
      <internalNodes>
        0 -1 6025283 5.7059498503804207e-03</internalNodes>
      <leafValues>
        7.2744905948638916e-02 5.7117748260498047e-01</leafValues></_>
    <_>
      <internalNodes>
        0 -1 4842756 -3.3415073994547129e-03</internalNodes>
      <leafValues>
        3.1671783328056335e-01 -1.5237478911876678e-01</leafValues></_>
    <_>
      <internalNodes>
        0 -1 4914869 2.0569544285535812e-03</internalNodes>
      <leafValues>
        -1.8254148960113525e-01 2.6217466592788696e-01</leafValues></_>
    <_>
      <internalNodes>
        0 -1 3584351 2.9678260907530785e-03</internalNodes>
      <leafValues>
        -2.4133262038230896e-01 2.4660322070121765e-01</leafValues></_>
    <_>
      <internalNodes>
        0 -1 4824695 -2.3472195607610047e-04</internalNodes>
      <leafValues>
        -5.1810061931610107e-01 9.4809398055076599e-02</leafValues></_>
    <_>
      <internalNodes>
        0 -1 2464711 6.5057945903390646e-04</internalNodes>
      <leafValues>
        -1.1963608115911484e-01 3.6035978794097900e-01</leafValues></_>
    <_>
      <internalNodes>
        0 -1 5044125 -2.4909310741350055e-04</internalNodes>
      <leafValues>
        -5.0832837820053101e-01 8.0886453390121460e-02</leafValues></_>
    <_>
      <internalNodes>
        0 -1 3438695 -3.7013692781329155e-03</internalNodes>
      <leafValues>
        3.6747595667839050e-01 -1.2183803319931030e-01</leafValues></_>
    <_>
      <internalNodes>
        0 -1 1414391 -1.9206828437745571e-03</internalNodes>
      <leafValues>
        3.2124543190002441e-01 -1.5400752425193787e-01</leafValues></_>
    <_>
      <internalNodes>
        0 -1 7287888 5.7098321849480271e-04</internalNodes>
      <leafValues>
        -1.2520165741443634e-01 3.5883203148841858e-01</leafValues></_>
    <_>
      <internalNodes>
        0 -1 6856905 -5.0361105240881443e-04</internalNodes>
      <leafValues>
        -4.4273084402084351e-01 1.0702273249626160e-01</leafValues></_>
    <_>
      <internalNodes>
        0 -1 5878851 -1.4401851221919060e-03</internalNodes>
      <leafValues>
        -5.5128258466720581e-01 9.0551391243934631e-02</leafValues></_>
    <_>
      <internalNodes>
        0 -1 6897940 1.4973112847656012e-03</internalNodes>
      <leafValues>
        -1.4696298539638519e-01 3.3575871586799622e-01</leafValues></_>
    <_>
      <internalNodes>
        0 -1 6851188 1.1668880470097065e-02</internalNodes>
      <leafValues>
        -5.7987350970506668e-02 7.2107625007629395e-01</leafValues></_>
    <_>
      <internalNodes>
        0 -1 3188482 4.9008778296411037e-04</internalNodes>
      <leafValues>
        -6.7716799676418304e-02 5.8109426498413086e-01</leafValues></_>
    <_>
      <internalNodes>
        0 -1 3065348 1.4762034639716148e-02</internalNodes>
      <leafValues>
        -1.0343917459249496e-01 4.0405669808387756e-01</leafValues></_>
    <_>
      <internalNodes>
        0 -1 5771083 -1.5284232795238495e-03</internalNodes>
      <leafValues>
        2.5084957480430603e-01 -1.9558973610401154e-01</leafValues></_>
    <_>
      <internalNodes>
        0 -1 135664 1.9169476581737399e-04</internalNodes>
      <leafValues>
        -1.3423261046409607e-01 3.3235970139503479e-01</leafValues></_>
    <_>
      <internalNodes>
        0 -1 4236661 -4.4740696466760710e-05</internalNodes>
      <leafValues>
        -3.3038115501403809e-01 1.3951860368251801e-01</leafValues></_>
    <_>
      <internalNodes>
        0 -1 4491732 -1.1082442943006754e-03</internalNodes>
      <leafValues>
        3.5054728388786316e-01 -1.3274858891963959e-01</leafValues></_>
    <_>
      <internalNodes>
        0 -1 5825082 1.9773803651332855e-03</internalNodes>
      <leafValues>
        -1.6711877286434174e-01 3.0308529734611511e-01</leafValues></_>
    <_>
      <internalNodes>
        0 -1 4242439 -4.4220892596058547e-04</internalNodes>
      <leafValues>
        5.3715693950653076e-01 -9.7715415060520172e-02</leafValues></_>
    <_>
      <internalNodes>
        0 -1 4517200 -1.4297258853912354e-01</internalNodes>
      <leafValues>
        -5.4130566120147705e-01 9.8729975521564484e-02</leafValues></_>
    <_>
      <internalNodes>
        0 -1 5682516 -2.5635992642492056e-04</internalNodes>
      <leafValues>
        -6.3101190328598022e-01 6.8111129105091095e-02</leafValues></_>
    <_>
      <internalNodes>
        0 -1 4750228 -9.8330453038215637e-03</internalNodes>
      <leafValues>
        5.9478974342346191e-01 -8.4323339164257050e-02</leafValues></_>
    <_>
      <internalNodes>
        0 -1 5084124 1.6849464736878872e-03</internalNodes>
      <leafValues>
        -1.2019225209951401e-01 3.7121057510375977e-01</leafValues></_>
    <_>
      <internalNodes>
        0 -1 3412928 -2.3753313143970445e-05</internalNodes>
      <leafValues>
        -2.6447376608848572e-01 1.8023367226123810e-01</leafValues></_>
    <_>
      <internalNodes>
        0 -1 4397339 -5.3315039258450270e-04</internalNodes>
      <leafValues>
        -3.9355158805847168e-01 1.0639048367738724e-01</leafValues></_>
    <_>
      <internalNodes>
        0 -1 5482412 -5.8956129942089319e-04</internalNodes>
      <leafValues>
        2.7839055657386780e-01 -1.5799805521965027e-01</leafValues></_>
    <_>
      <internalNodes>
        0 -1 4479158 -7.6757790520787239e-04</internalNodes>
      <leafValues>
        3.0607619881629944e-01 -1.7756758630275726e-01</leafValues></_>
    <_>
      <internalNodes>
        0 -1 3555665 -3.2664336264133453e-02</internalNodes>
      <leafValues>
        2.1361367404460907e-01 -2.3728992044925690e-01</leafValues></_>
    <_>
      <internalNodes>
        0 -1 2279196 4.2468081228435040e-03</internalNodes>
      <leafValues>
        -8.9537903666496277e-02 5.0617223978042603e-01</leafValues></_>
    <_>
      <internalNodes>
        0 -1 5425443 3.2509917218703777e-05</internalNodes>
      <leafValues>
        1.5085411071777344e-01 -3.2592317461967468e-01</leafValues></_>
    <_>
      <internalNodes>
        0 -1 7739588 -8.7821169290691614e-04</internalNodes>
      <leafValues>
        3.0311173200607300e-01 -1.5196436643600464e-01</leafValues></_>
    <_>
      <internalNodes>
        0 -1 5280882 3.0705068638781086e-05</internalNodes>
      <leafValues>
        1.2835486233234406e-01 -3.6459878087043762e-01</leafValues></_>
    <_>
      <internalNodes>
        0 -1 4697140 3.2123876735568047e-04</internalNodes>
      <leafValues>
        -1.4854559302330017e-01 3.2387375831604004e-01</leafValues></_>
    <_>
      <internalNodes>
        0 -1 2766682 -2.5121658109128475e-03</internalNodes>
      <leafValues>
        -5.5625927448272705e-01 8.9182846248149872e-02</leafValues></_>
    <_>
      <internalNodes>
        0 -1 4300351 2.9204511520219967e-05</internalNodes>
      <leafValues>
        1.3961803913116455e-01 -3.3520263433456421e-01</leafValues></_></weakClassifiers></stage11>
</opencv_storage>
